{"learner":{"attributes":{"scikit_learn":"{\"_estimator_type\": \"classifier\"}"},"feature_names":[],"feature_types":[],"gradient_booster":{"model":{"cats":{"enc":[],"feature_segments":[],"sorted_idx":[]},"gbtree_model_param":{"num_parallel_tree":"1","num_trees":"500"},"iteration_indptr":[0,5,10,15,20,25,30,35,40,45,50,55,60,65,70,75,80,85,90,95,100,105,110,115,120,125,130,135,140,145,150,155,160,165,170,175,180,185,190,195,200,205,210,215,220,225,230,235,240,245,250,255,260,265,270,275,280,285,290,295,300,305,310,315,320,325,330,335,340,345,350,355,360,365,370,375,380,385,390,395,400,405,410,415,420,425,430,435,440,445,450,455,460,465,470,475,480,485,490,495,500],"tree_info":[0,1,2,3,4,0,1,2,3,4,0,1,2,3,4,0,1,2,3,4,0,1,2,3,4,0,1,2,3,4,0,1,2,3,4,0,1,2,3,4,0,1,2,3,4,0,1,2,3,4,0,1,2,3,4,0,1,2,3,4,0,1,2,3,4,0,1,2,3,4,0,1,2,3,4,0,1,2,3,4,0,1,2,3,4,0,1,2,3,4,0,1,2,3,4,0,1,2,3,4,0,1,2,3,4,0,1,2,3,4,0,1,2,3,4,0,1,2,3,4,0,1,2,3,4,0,1,2,3,4,0,1,2,3,4,0,1,2,3,4,0,1,2,3,4,0,1,2,3,4,0,1,2,3,4,0,1,2,3,4,0,1,2,3,4,0,1,2,3,4,0,1,2,3,4,0,1,2,3,4,0,1,2,3,4,0,1,2,3,4,0,1,2,3,4,0,1,2,3,4,0,1,2,3,4,0,1,2,3,4,0,1,2,3,4,0,1,2,3,4,0,1,2,3,4,0,1,2,3,4,0,1,2,3,4,0,1,2,3,4,0,1,2,3,4,0,1,2,3,4,0,1,2,3,4,0,1,2,3,4,0,1,2,3,4,0,1,2,3,4,0,1,2,3,4,0,1,2,3,4,0,1,2,3,4,0,1,2,3,4,0,1,2,3,4,0,1,2,3,4,0,1,2,3,4,0,1,2,3,4,0,1,2,3,4,0,1,2,3,4,0,1,2,3,4,0,1,2,3,4,0,1,2,3,4,0,1,2,3,4,0,1,2,3,4,0,1,2,3,4,0,1,2,3,4,0,1,2,3,4,0,1,2,3,4,0,1,2,3,4,0,1,2,3,4,0,1,2,3,4,0,1,2,3,4,0,1,2,3,4,0,1,2,3,4,0,1,2,3,4,0,1,2,3,4,0,1,2,3,4,0,1,2,3,4,0,1,2,3,4,0,1,2,3,4,0,1,2,3,4,0,1,2,3,4,0,1,2,3,4,0,1,2,3,4,0,1,2,3,4,0,1,2,3,4,0,1,2,3,4,0,1,2,3,4,0,1,2,3,4,0,1,2,3,4,0,1,2,3,4,0,1,2,3,4,0,1,2,3,4,0,1,2,3,4,0,1,2,3,4],"trees":[{"base_weights":[-3.7330762E-1,1.4728639E0,-5.827748E-1,7.1670514E-1,-1.33365225E-2,4.4040296E-2,-1.7868423E-1,1.8441972E-1,-1.2576345E-1],"categories":[],"categories_nodes":[],"categories_segments":[],"categories_sizes":[],"default_left":[0,0,0,0,0,0,0,0,0],"id":0,"left_children":[1,3,5,-1,7,-1,-1,-1,-1],"loss_changes":[3.3784145E1,1.2230946E1,8.104286E-1,0E0,1.3821938E0,0E0,0E0,0E0,0E0],"parents":[2147483647,0,0,1,1,2,2,4,4],"right_children":[2,4,6,-1,8,-1,-1,-1,-1],"split_conditions":[2.00001E0,2.00001E0,2.00001E0,7.1670514E-1,2.00001E0,4.4040296E-2,-1.7868423E-1,1.8441972E-1,-1.2576345E-1],"split_indices":[31,38,30,0,1,0,0,0,0],"split_type":[0,0,0,0,0,0,0,0,0],"sum_hessian":[8.414285E1,7.959459E0,7.618339E1,4.548262E0,3.4111967E0,1.1370655E0,7.5046326E1,1.1370655E0,2.274131E0],"tree_param":{"num_deleted":"0","num_feature":"50","num_nodes":"9","size_leaf_vector":"1"}},{"base_weights":[-2.516336E-2,1.1565101E0,-1.8310328E-1,7.16806E-1,2.1031968E-1,6.380218E-1,-1.7287403E-1],"categories":[],"categories_nodes":[],"categories_segments":[],"categories_sizes":[],"default_left":[0,0,0,0,0,0,0],"id":1,"left_children":[1,3,-1,-1,5,-1,-1],"loss_changes":[6.534636E1,3.6015854E1,0E0,0E0,2.9577415E1,0E0,0E0],"parents":[2147483647,0,0,1,1,4,4],"right_children":[2,4,-1,-1,6,-1,-1],"split_conditions":[2.00001E0,2.00001E0,-1.8310328E-1,7.16806E-1,2.00001E0,6.380218E-1,-1.7287403E-1],"split_indices":[33,38,0,0,46,0,0],"split_type":[0,0,0,0,0,0,0],"sum_hessian":[9.247964E1,3.0305828E1,6.2173813E1,1.2497249E1,1.7808578E1,4.686468E0,1.3122111E1],"tree_param":{"num_deleted":"0","num_feature":"50","num_nodes":"7","size_leaf_vector":"1"}},{"base_weights":[-3.387761E-2,1.3770618E0,-3.0765197E-1,-1.5484262E-1,7.017234E-1,7.858631E-1,-1.8291806E-1,6.73819E-1,-2.8976375E-1,-4.531237E-1,1.6393137E-1,-1.6582282E-2,-1.6223404E-1],"categories":[],"categories_nodes":[],"categories_segments":[],"categories_sizes":[],"default_left":[0,0,0,0,0,0,0,0,0,0,0,0,0],"id":2,"left_children":[1,3,5,-1,-1,7,-1,-1,9,11,-1,-1,-1],"loss_changes":[3.644126E1,2.9136774E1,2.6544147E1,0E0,0E0,2.8162594E1,0E0,0E0,1.746421E0,3.09281E-1,0E0,0E0,0E0],"parents":[2147483647,0,0,1,1,2,2,5,5,8,8,9,9],"right_children":[2,4,6,-1,-1,8,-1,-1,10,12,-1,-1,-1],"split_conditions":[2.00001E0,2.00001E0,2.00001E0,-1.5484262E-1,7.017234E-1,2.00001E0,-1.8291806E-1,6.73819E-1,7.1E1,5.1E1,1.6393137E-1,-1.6582282E-2,-1.6223404E-1],"split_indices":[39,36,34,0,0,38,0,0,0,0,0,0,0],"split_type":[0,0,0,0,0,0,0,0,0,0,0,0,0],"sum_hessian":[9.224245E1,1.4334975E1,7.790747E1,4.9860783E0,9.348897E0,1.6516384E1,6.139109E1,6.5442276E0,9.972157E0,8.725637E0,1.2465196E0,1.8697793E0,6.855858E0],"tree_param":{"num_deleted":"0","num_feature":"50","num_nodes":"13","size_leaf_vector":"1"}},{"base_weights":[6.553664E-1,1.6734748E0,8.946517E-2,-1.2752764E-1,5.297222E-1,4.95598E-1,-3.6795816E-1,4.4933057E-1,-5.539662E-1,2.9612455E-1,-6.055411E-1,-1.2121658E-2,-6.2171704E-1,-3.813701E-2,-1.9154637E-1],"categories":[],"categories_nodes":[],"categories_segments":[],"categories_sizes":[],"default_left":[0,0,0,0,0,0,0,0,0,0,0,0,0,0,0],"id":3,"left_children":[1,3,5,-1,-1,-1,7,-1,9,-1,11,-1,13,-1,-1],"loss_changes":[6.862194E1,8.996651E0,5.6197884E1,0E0,0E0,0E0,2.19929E1,0E0,5.0631466E0,0E0,4.7751617E-1,0E0,3.6164093E-1,0E0,0E0],"parents":[2147483647,0,0,1,1,2,2,6,6,8,8,10,10,12,12],"right_children":[2,4,6,-1,-1,-1,8,-1,10,-1,12,-1,14,-1,-1],"split_conditions":[2.00001E0,2.00001E0,2.00001E0,-1.2752764E-1,5.297222E-1,4.95598E-1,2.00001E0,4.4933057E-1,2.00001E0,2.9612455E-1,2.00001E0,-1.2121658E-2,2.00001E0,-3.813701E-2,-1.9154637E-1],"split_indices":[36,45,43,0,0,0,44,0,35,0,18,0,30,0,0],"split_type":[0,0,0,0,0,0,0,0,0,0,0,0,0,0,0],"sum_hessian":[1.18364395E2,4.158749E1,7.677691E1,1.5995189E0,3.9987972E1,1.6794949E1,5.998196E1,4.798557E0,5.5183403E1,1.1996392E0,5.398376E1,1.5995189E0,5.2384243E1,1.9993986E0,5.0384846E1],"tree_param":{"num_deleted":"0","num_feature":"50","num_nodes":"15","size_leaf_vector":"1"}},{"base_weights":[-4.9502867E-1,5.657222E-1,-1.7008507E-1],"categories":[],"categories_nodes":[],"categories_segments":[],"categories_sizes":[],"default_left":[0,0,0],"id":4,"left_children":[1,-1,-1],"loss_changes":[1.5227299E1,0E0,0E0],"parents":[2147483647,0,0],"right_children":[2,-1,-1],"split_conditions":[2.00001E0,5.657222E-1,-1.7008507E-1],"split_indices":[45,0,0],"split_type":[0,0,0],"sum_hessian":[8.168582E1,1.6557937E0,8.003002E1],"tree_param":{"num_deleted":"0","num_feature":"50","num_nodes":"3","size_leaf_vector":"1"}},{"base_weights":[-3.3412352E-1,9.4015557E-1,-5.5473864E-1,3.9176267E-1,1.3961198E-2,3.5539635E-2,-1.7084861E-1,1.5407617E-1,-1.1490442E-1],"categories":[],"categories_nodes":[],"categories_segments":[],"categories_sizes":[],"default_left":[0,0,0,0,0,0,0,0,0],"id":5,"left_children":[1,3,5,-1,7,-1,-1,-1,-1],"loss_changes":[2.1464825E1,3.8315601E0,7.045765E-1,0E0,1.0353264E0,0E0,0E0,0E0,0E0],"parents":[2147483647,0,0,1,1,2,2,4,4],"right_children":[2,4,6,-1,8,-1,-1,-1,-1],"split_conditions":[2.00001E0,2.00001E0,2.00001E0,3.9176267E-1,2.00001E0,3.5539635E-2,-1.7084861E-1,1.5407617E-1,-1.1490442E-1],"split_indices":[31,38,30,0,1,0,0,0,0],"split_type":[0,0,0,0,0,0,0,0,0],"sum_hessian":[7.349805E1,1.0365443E1,6.3132607E1,7.1372643E0,3.2281792E0,1.2034398E0,6.1929165E1,1.2992365E0,1.9289427E0],"tree_param":{"num_deleted":"0","num_feature":"50","num_nodes":"9","size_leaf_vector":"1"}},{"base_weights":[-2.368746E-2,7.5141585E-1,-1.7370895E-1,3.8345662E-1,1.647192E-1,3.7071177E-1,-1.6329679E-1],"categories":[],"categories_nodes":[],"categories_segments":[],"categories_sizes":[],"default_left":[0,0,0,0,0,0,0],"id":6,"left_children":[1,3,-1,-1,5,-1,-1],"loss_changes":[3.878216E1,1.1416412E1,0E0,0E0,1.5059765E1,0E0,0E0],"parents":[2147483647,0,0,1,1,4,4],"right_children":[2,4,-1,-1,6,-1,-1],"split_conditions":[2.00001E0,2.00001E0,-1.7370895E-1,3.8345662E-1,2.00001E0,3.7071177E-1,-1.6329679E-1],"split_indices":[33,38,0,0,46,0,0],"split_type":[0,0,0,0,0,0,0],"sum_hessian":[8.808649E1,3.6620876E1,5.1465614E1,1.867483E1,1.7946047E1,6.8526053E0,1.1093441E1],"tree_param":{"num_deleted":"0","num_feature":"50","num_nodes":"7","size_leaf_vector":"1"}},{"base_weights":[-2.78737E-2,8.719286E-1,-2.7025172E-1,-1.4278461E-1,3.839073E-1,5.594881E-1,-1.7369212E-1,3.7727663E-1,-2.4408944E-1,3.2501847E-1,-1.5915495E-1],"categories":[],"categories_nodes":[],"categories_segments":[],"categories_sizes":[],"default_left":[0,0,0,0,0,0,0,0,0,0,0],"id":7,"left_children":[1,3,5,-1,-1,7,-1,-1,9,-1,-1],"loss_changes":[1.9572119E1,1.1079885E1,1.8411484E1,0E0,0E0,1.1333761E1,0E0,0E0,4.3676496E0,0E0,0E0],"parents":[2147483647,0,0,1,1,2,2,5,5,8,8],"right_children":[2,4,6,-1,-1,8,-1,-1,10,-1,-1],"split_conditions":[2.00001E0,2.00001E0,2.00001E0,-1.4278461E-1,3.839073E-1,2.00001E0,-1.7369212E-1,3.7727663E-1,2.00001E0,3.2501847E-1,-1.5915495E-1],"split_indices":[39,36,34,0,0,38,0,0,46,0,0],"split_type":[0,0,0,0,0,0,0,0,0,0,0],"sum_hessian":[8.76619E1,1.8051237E1,6.9610664E1,4.1537156E0,1.3897522E1,1.865638E1,5.0954285E1,9.681061E0,8.97532E0,1.0990734E0,7.8762465E0],"tree_param":{"num_deleted":"0","num_feature":"50","num_nodes":"11","size_leaf_vector":"1"}},{"base_weights":[4.8838454E-1,1.071942E0,8.137457E-2,-1.18039206E-1,3.3683115E-1,3.224794E-1,-3.1079483E-1,3.115378E-1,-4.9212015E-1,2.333264E-1,-5.460808E-1,-6.2130936E-3,-5.632851E-1,-3.6111057E-2,-1.7412046E-1],"categories":[],"categories_nodes":[],"categories_segments":[],"categories_sizes":[],"default_left":[0,0,0,0,0,0,0,0,0,0,0,0,0,0,0],"id":8,"left_children":[1,3,5,-1,-1,-1,7,-1,9,-1,11,-1,13,-1,-1],"loss_changes":[2.9825232E1,4.2899933E0,2.966449E1,0E0,0E0,0E0,1.3905245E1,0E0,3.7782593E0,0E0,4.179659E-1,0E0,2.7877235E-1,0E0,0E0],"parents":[2147483647,0,0,1,1,2,2,6,6,8,8,10,10,12,12],"right_children":[2,4,6,-1,-1,-1,8,-1,10,-1,12,-1,14,-1,-1],"split_conditions":[2.00001E0,2.00001E0,2.00001E0,-1.18039206E-1,3.3683115E-1,3.224794E-1,2.00001E0,3.115378E-1,2.00001E0,2.333264E-1,2.00001E0,-6.2130936E-3,2.00001E0,-3.6111057E-2,-1.7412046E-1],"split_indices":[36,45,43,0,0,0,44,0,35,0,18,0,30,0,0],"split_type":[0,0,0,0,0,0,0,0,0,0,0,0,0,0,0],"sum_hessian":[1.2493996E2,5.066478E1,7.427518E1,1.4724511E0,4.919233E1,2.0527643E1,5.374753E1,5.8073783E0,4.7940155E1,1.4073429E0,4.653281E1,1.5453701E0,4.4987442E1,1.9727092E0,4.3014732E1],"tree_param":{"num_deleted":"0","num_feature":"50","num_nodes":"15","size_leaf_vector":"1"}},{"base_weights":[-4.5813903E-1,3.670855E-1,-1.6140735E-1],"categories":[],"categories_nodes":[],"categories_segments":[],"categories_sizes":[],"default_left":[0,0,0],"id":9,"left_children":[1,-1,-1],"loss_changes":[1.0052216E1,0E0,0E0],"parents":[2147483647,0,0],"right_children":[2,-1,-1],"split_conditions":[2.00001E0,3.670855E-1,-1.6140735E-1],"split_indices":[45,0,0],"split_type":[0,0,0],"sum_hessian":[6.8922035E1,2.4761739E0,6.644586E1],"tree_param":{"num_deleted":"0","num_feature":"50","num_nodes":"3","size_leaf_vector":"1"}},{"base_weights":[-3.0484942E-1,7.17821E-1,-5.3239214E-1,-9.307227E-2,8.624232E-1,2.8859833E-2,-1.6487105E-1,-9.112391E-2,3.0503953E-1],"categories":[],"categories_nodes":[],"categories_segments":[],"categories_sizes":[],"default_left":[0,0,0,0,0,0,0,0,0],"id":10,"left_children":[1,3,5,-1,7,-1,-1,-1,-1],"loss_changes":[1.5215017E1,2.0555067E0,6.2208366E-1,0E0,2.254693E0,0E0,0E0,0E0,0E0],"parents":[2147483647,0,0,1,1,2,2,4,4],"right_children":[2,4,6,-1,8,-1,-1,-1,-1],"split_conditions":[2.00001E0,2.00001E0,2.00001E0,-9.307227E-2,2.00001E0,2.8859833E-2,-1.6487105E-1,-9.112391E-2,3.0503953E-1],"split_indices":[31,39,30,0,43,0,0,0,0],"split_type":[0,0,0,0,0,0,0,0,0],"sum_hessian":[6.274207E1,1.1027098E1,5.1714973E1,1.2185104E0,9.808587E0,1.2532935E0,5.0461678E1,1.0335367E0,8.775051E0],"tree_param":{"num_deleted":"0","num_feature":"50","num_nodes":"9","size_leaf_vector":"1"}},{"base_weights":[-2.2120873E-2,5.860264E-1,-1.666712E-1,2.8184152E-1,1.3554046E-1,2.7342936E-1,-1.5554562E-1],"categories":[],"categories_nodes":[],"categories_segments":[],"categories_sizes":[],"default_left":[0,0,0,0,0,0,0],"id":11,"left_children":[1,3,-1,-1,5,-1,-1],"loss_changes":[2.6210201E1,5.8865576E0,0E0,0E0,9.492145E0,0E0,0E0],"parents":[2147483647,0,0,1,1,4,4],"right_children":[2,4,-1,-1,6,-1,-1],"split_conditions":[2.00001E0,2.00001E0,-1.666712E-1,2.8184152E-1,2.00001E0,2.7342936E-1,-1.5554562E-1],"split_indices":[33,38,0,0,46,0,0],"split_type":[0,0,0,0,0,0,0],"sum_hessian":[7.878835E1,3.6770466E1,4.2017887E1,1.9996227E1,1.6774237E1,7.4923105E0,9.281926E0],"tree_param":{"num_deleted":"0","num_feature":"50","num_nodes":"7","size_leaf_vector":"1"}},{"base_weights":[-2.2464728E-2,6.763396E-1,-2.4411431E-1,-1.3224284E-1,2.8297785E-1,4.5626426E-1,-1.6681695E-1,2.7749392E-1,-2.0155127E-1,2.512342E-1,-1.4969888E-1],"categories":[],"categories_nodes":[],"categories_segments":[],"categories_sizes":[],"default_left":[0,0,0,0,0,0,0,0,0,0,0],"id":12,"left_children":[1,3,5,-1,-1,7,-1,-1,9,-1,-1],"loss_changes":[1.2485841E1,6.2066545E0,1.3608188E1,0E0,0E0,6.1632943E0,0E0,0E0,3.1642072E0,0E0,0E0],"parents":[2147483647,0,0,1,1,2,2,5,5,8,8],"right_children":[2,4,6,-1,-1,8,-1,-1,10,-1,-1],"split_conditions":[2.00001E0,2.00001E0,2.00001E0,-1.3224284E-1,2.8297785E-1,2.00001E0,-1.6681695E-1,2.7749392E-1,2.00001E0,2.512342E-1,-1.4969888E-1],"split_indices":[39,36,34,0,0,38,0,0,46,0,0],"split_type":[0,0,0,0,0,0,0,0,0,0,0],"sum_hessian":[7.8545235E1,1.8420073E1,6.012516E1,3.426703E0,1.4993369E1,1.8384737E1,4.1740425E1,1.0498248E1,7.8864894E0,1.3511939E0,6.5352955E0],"tree_param":{"num_deleted":"0","num_feature":"50","num_nodes":"11","size_leaf_vector":"1"}},{"base_weights":[4.017674E-1,8.328945E-1,7.326662E-2,-1.0834956E-1,2.6149857E-1,2.4878003E-1,-2.7138835E-1,2.4345398E-1,-4.444692E-1,1.9169544E-1,-5.0005716E-1,-1.679719E-1,-2.4644537E-1,1.3521953E-1,-1.2621792E-1],"categories":[],"categories_nodes":[],"categories_segments":[],"categories_sizes":[],"default_left":[0,0,0,0,0,0,0,0,0,0,0,0,0,0,0],"id":13,"left_children":[1,3,5,-1,-1,-1,7,-1,9,-1,11,-1,13,-1,-1],"loss_changes":[1.6854294E1,2.7012787E0,1.8173132E1,0E0,0E0,0E0,9.369794E0,0E0,2.854416E0,0E0,4.7819614E-1,0E0,1.3484474E0,0E0,0E0],"parents":[2147483647,0,0,1,1,2,2,6,6,8,8,10,10,12,12],"right_children":[2,4,6,-1,-1,-1,8,-1,10,-1,12,-1,14,-1,-1],"split_conditions":[2.00001E0,2.00001E0,2.00001E0,-1.0834956E-1,2.6149857E-1,2.4878003E-1,2.00001E0,2.4345398E-1,2.00001E0,1.9169544E-1,2.00001E0,-1.679719E-1,2.00001E0,1.3521953E-1,-1.2621792E-1],"split_indices":[36,45,43,0,0,0,44,0,35,0,21,0,9,0,0],"split_type":[0,0,0,0,0,0,0,0,0,0,0,0,0,0,0],"sum_hessian":[1.1843691E2,5.0554E1,6.788291E1,1.328205E0,4.9225796E1,2.0816305E1,4.706661E1,5.977708E0,4.10889E1,1.4930531E0,3.9595848E1,3.1058664E1,8.537182E0,1.3901048E0,7.147077E0],"tree_param":{"num_deleted":"0","num_feature":"50","num_nodes":"15","size_leaf_vector":"1"}},{"base_weights":[-4.2736828E-1,2.7211177E-1,-5.133472E-1,-3.7796178E-1,-1.638168E-1,1.2621675E-2,-4.3435454E-1,-1.4295882E-1,-1.506896E-1,5.620411E-2,-1.0455654E-1],"categories":[],"categories_nodes":[],"categories_segments":[],"categories_sizes":[],"default_left":[0,0,0,0,0,0,0,0,0,0,0],"id":14,"left_children":[1,-1,3,5,-1,-1,7,9,-1,-1,-1],"loss_changes":[7.1776896E0,0E0,3.982258E-2,3.514886E-1,0E0,0E0,1.7549014E-1,3.2056463E-1,0E0,0E0,0E0],"parents":[2147483647,0,0,2,2,3,3,6,6,7,7],"right_children":[2,-1,4,6,-1,-1,8,10,-1,-1,-1],"split_conditions":[2.00001E0,2.7211177E-1,2.00001E0,2.00001E0,-1.638168E-1,1.2621675E-2,2.00001E0,2.00001E0,-1.506896E-1,5.620411E-2,-1.0455654E-1],"split_indices":[45,0,12,15,0,0,43,1,0,0,0],"split_type":[0,0,0,0,0,0,0,0,0,0,0],"sum_hessian":[5.750264E1,2.9027E0,5.4599937E1,1.3067468E1,4.153247E1,1.576803E0,1.1490665E1,2.759576E0,8.731089E0,1.0925856E0,1.6669905E0],"tree_param":{"num_deleted":"0","num_feature":"50","num_nodes":"11","size_leaf_vector":"1"}},{"base_weights":[-2.8381422E-1,5.8274984E-1,-5.131625E-1,-8.452408E-2,6.939461E-1,2.3807885E-2,-1.6003443E-1,2.275853E-1,7.500581E-2],"categories":[],"categories_nodes":[],"categories_segments":[],"categories_sizes":[],"default_left":[0,0,0,0,0,0,0,0,0],"id":15,"left_children":[1,3,5,-1,7,-1,-1,-1,-1],"loss_changes":[1.0916976E1,1.3153036E0,5.5648804E-1,0E0,1.1493778E-1,0E0,0E0,0E0,0E0],"parents":[2147483647,0,0,1,1,2,2,4,4],"right_children":[2,4,6,-1,8,-1,-1,-1,-1],"split_conditions":[2.00001E0,2.00001E0,2.00001E0,-8.452408E-2,2.00001E0,2.3807885E-2,-1.6003443E-1,2.275853E-1,7.500581E-2],"split_indices":[31,39,30,0,38,0,0,0,0],"split_type":[0,0,0,0,0,0,0,0,0],"sum_hessian":[5.2424896E1,1.0648807E1,4.177609E1,1.0388075E0,9.609999E0,1.2865032E0,4.0489586E1,7.769285E0,1.8407139E0],"tree_param":{"num_deleted":"0","num_feature":"50","num_nodes":"9","size_leaf_vector":"1"}},{"base_weights":[-2.1133214E-2,4.9342942E-1,-1.6101351E-1,-1.2686358E-1,6.0147077E-1,-1.17266245E-1,6.9701207E-1,7.731706E-2,2.1633305E-1],"categories":[],"categories_nodes":[],"categories_segments":[],"categories_sizes":[],"default_left":[0,0,0,0,0,0,0,0,0],"id":16,"left_children":[1,3,-1,-1,5,-1,7,-1,-1],"loss_changes":[1.8467108E1,3.7054834E0,0E0,0E0,3.2681313E0,0E0,1.2306023E-1,0E0,0E0],"parents":[2147483647,0,0,1,1,4,4,6,6],"right_children":[2,4,-1,-1,6,-1,8,-1,-1],"split_conditions":[2.00001E0,2.00001E0,-1.6101351E-1,-1.2686358E-1,2.00001E0,-1.17266245E-1,2.00001E0,7.731706E-2,2.1633305E-1],"split_indices":[33,39,0,0,43,0,48,0,0],"split_type":[0,0,0,0,0,0,0,0,0],"sum_hessian":[6.7610825E1,3.386025E1,3.3750572E1,3.2639937E0,3.0596256E1,2.4155352E0,2.8180721E1,2.073692E0,2.6107029E1],"tree_param":{"num_deleted":"0","num_feature":"50","num_nodes":"9","size_leaf_vector":"1"}},{"base_weights":[-1.8105546E-2,5.681776E-1,-2.2381799E-1,-1.223236E-1,2.318422E-1,3.958053E-1,-1.6131276E-1,-1.316975E-1,6.4910793E-1,-9.745532E-2,2.3351689E-1],"categories":[],"categories_nodes":[],"categories_segments":[],"categories_sizes":[],"default_left":[0,0,0,0,0,0,0,0,0,0,0],"id":17,"left_children":[1,3,5,-1,-1,7,-1,-1,9,-1,-1],"loss_changes":[8.412292E0,3.9348507E0,1.0242956E1,0E0,0E0,4.073477E0,0E0,0E0,2.0344305E0,0E0,0E0],"parents":[2147483647,0,0,1,1,2,2,5,5,8,8],"right_children":[2,4,6,-1,-1,8,-1,-1,10,-1,-1],"split_conditions":[2.00001E0,2.00001E0,2.00001E0,-1.223236E-1,2.318422E-1,2.00001E0,-1.6131276E-1,-1.316975E-1,2.00001E0,-9.745532E-2,2.3351689E-1],"split_indices":[39,36,34,0,0,43,0,0,44,0,0],"split_type":[0,0,0,0,0,0,0,0,0,0,0],"sum_hessian":[6.769593E1,1.7125639E1,5.057029E1,2.796402E0,1.4329238E1,1.6916348E1,3.3653942E1,3.767363E0,1.3148985E1,1.3635765E0,1.1785408E1],"tree_param":{"num_deleted":"0","num_feature":"50","num_nodes":"11","size_leaf_vector":"1"}},{"base_weights":[3.496313E-1,7.048973E-1,6.874842E-2,-9.90493E-2,2.2164904E-1,2.074541E-1,-2.3875132E-1,2.0389208E-1,-4.023796E-1,1.6247042E-1,-4.5906568E-1,-1.5780184E-1,-1.973105E-1,-1.4362115E-1,6.691007E-2],"categories":[],"categories_nodes":[],"categories_segments":[],"categories_sizes":[],"default_left":[0,0,0,0,0,0,0,0,0,0,0,0,0,0,0],"id":18,"left_children":[1,3,5,-1,-1,-1,7,-1,9,-1,11,-1,13,-1,-1],"loss_changes":[1.0582375E1,1.8922577E0,1.1770674E1,0E0,0E0,0E0,6.4819727E0,0E0,2.1585913E0,0E0,4.9570656E-1,0E0,1.1203443E0,0E0,0E0],"parents":[2147483647,0,0,1,1,2,2,6,6,8,8,10,10,12,12],"right_children":[2,4,6,-1,-1,-1,8,-1,10,-1,12,-1,14,-1,-1],"split_conditions":[2.00001E0,2.00001E0,2.00001E0,-9.90493E-2,2.2164904E-1,2.074541E-1,2.00001E0,2.0389208E-1,2.00001E0,1.6247042E-1,2.00001E0,-1.5780184E-1,2.00001E0,-1.4362115E-1,6.691007E-2],"split_indices":[36,45,43,0,0,0,44,0,35,0,21,0,38,0,0],"split_type":[0,0,0,0,0,0,0,0,0,0,0,0,0,0,0],"sum_hessian":[1.0553407E2,4.5930603E1,5.9603474E1,1.1808494E0,4.4749752E1,1.9289171E1,4.0314304E1,5.6196265E0,3.4694675E1,1.4808854E0,3.321379E1,2.564571E1,7.568082E0,4.449894E0,3.1181877E0],"tree_param":{"num_deleted":"0","num_feature":"50","num_nodes":"15","size_leaf_vector":"1"}},{"base_weights":[-4.003413E-1,2.184814E-1,-4.9080843E-1,-3.385573E-1,-1.5898506E-1,1.7506251E-2,-4.0075734E-1,-9.916974E-2,-1.4378977E-1,-9.671211E-2,6.594315E-2],"categories":[],"categories_nodes":[],"categories_segments":[],"categories_sizes":[],"default_left":[0,0,0,0,0,0,0,0,0,0,0],"id":19,"left_children":[1,-1,3,5,-1,-1,7,9,-1,-1,-1],"loss_changes":[5.3029284E0,0E0,9.137344E-2,3.2116532E-1,0E0,0E0,2.024808E-1,3.1590134E-1,0E0,0E0,0E0],"parents":[2147483647,0,0,2,2,3,3,6,6,7,7],"right_children":[2,-1,4,6,-1,-1,8,10,-1,-1,-1],"split_conditions":[2.00001E0,2.184814E-1,2.00001E0,2.00001E0,-1.5898506E-1,1.7506251E-2,2.00001E0,5.4E1,-1.4378977E-1,-9.671211E-2,6.594315E-2],"split_indices":[45,0,12,15,0,0,43,0,0,0,0],"split_type":[0,0,0,0,0,0,0,0,0,0,0],"sum_hessian":[4.743657E1,2.9970527E0,4.4439518E1,1.1061753E1,3.337776E1,1.507014E0,9.55474E0,2.4416897E0,7.11305E0,1.4302471E0,1.0114428E0],"tree_param":{"num_deleted":"0","num_feature":"50","num_nodes":"11","size_leaf_vector":"1"}},{"base_weights":[-2.646433E-1,4.9927008E-1,-4.9574372E-1,1.9519068E-1,3.8441E-2,-1.5663445E-1,2.1209506E-2,9.59185E-2,-8.9588925E-2],"categories":[],"categories_nodes":[],"categories_segments":[],"categories_sizes":[],"default_left":[0,0,0,0,0,0,0,0,0],"id":20,"left_children":[1,3,5,-1,7,-1,-1,-1,-1],"loss_changes":[8.046998E0,7.254896E-1,5.510721E-1,0E0,4.4847536E-1,0E0,0E0,0E0,0E0],"parents":[2147483647,0,0,1,1,2,2,4,4],"right_children":[2,4,6,-1,8,-1,-1,-1,-1],"split_conditions":[2.00001E0,2.00001E0,8.2E1,1.9519068E-1,2.00001E0,-1.5663445E-1,2.1209506E-2,9.59185E-2,-8.9588925E-2],"split_indices":[31,38,0,0,1,0,0,0,0],"split_type":[0,0,0,0,0,0,0,0,0],"sum_hessian":[4.3179543E1,9.759303E0,3.342024E1,7.036266E0,2.723037E0,3.2008327E1,1.4119142E0,1.51239E0,1.210647E0],"tree_param":{"num_deleted":"0","num_feature":"50","num_nodes":"9","size_leaf_vector":"1"}},{"base_weights":[-2.3653995E-2,4.193276E-1,-1.5635824E-1,2.0350623E-1,6.768091E-2,1.9163544E-1,-1.4696401E-1],"categories":[],"categories_nodes":[],"categories_segments":[],"categories_sizes":[],"default_left":[0,0,0,0,0,0,0],"id":21,"left_children":[1,3,-1,-1,5,-1,-1],"loss_changes":[1.3024896E1,2.804327E0,0E0,0E0,4.8930717E0,0E0,0E0],"parents":[2147483647,0,0,1,1,4,4],"right_children":[2,4,-1,-1,6,-1,-1],"split_conditions":[2.00001E0,2.00001E0,-1.5635824E-1,2.0350623E-1,2.00001E0,1.9163544E-1,-1.4696401E-1],"split_indices":[33,38,0,0,46,0,0],"split_type":[0,0,0,0,0,0,0],"sum_hessian":[5.710472E1,3.0291805E1,2.6812914E1,1.6908072E1,1.3383734E1,6.5396066E0,6.8441277E0],"tree_param":{"num_deleted":"0","num_feature":"50","num_nodes":"7","size_leaf_vector":"1"}},{"base_weights":[-1.6430166E-2,5.056177E-1,-2.1270806E-1,-1.1270467E-1,2.0292951E-1,3.4199083E-1,-1.567748E-1,-1.22982E-1,5.529224E-1,-8.868249E-2,1.9848602E-1],"categories":[],"categories_nodes":[],"categories_segments":[],"categories_sizes":[],"default_left":[0,0,0,0,0,0,0,0,0,0,0],"id":22,"left_children":[1,3,5,-1,-1,7,-1,-1,9,-1,-1],"loss_changes":[6.0537453E0,2.6857128E0,7.5489E0,0E0,0E0,2.7599983E0,0E0,0E0,1.3853154E0,0E0,0E0],"parents":[2147483647,0,0,1,1,2,2,5,5,8,8],"right_children":[2,4,6,-1,-1,8,-1,-1,10,-1,-1],"split_conditions":[2.00001E0,2.00001E0,2.00001E0,-1.1270467E-1,2.0292951E-1,2.00001E0,-1.567748E-1,-1.22982E-1,2.00001E0,-8.868249E-2,1.9848602E-1],"split_indices":[39,36,34,0,0,43,0,0,44,0,0],"split_type":[0,0,0,0,0,0,0,0,0,0,0],"sum_hessian":[5.703067E1,1.5152624E1,4.1878048E1,2.265355E0,1.2887269E1,1.4972499E1,2.6905548E1,3.0732992E0,1.18991995E1,1.1559459E0,1.0743254E1],"tree_param":{"num_deleted":"0","num_feature":"50","num_nodes":"11","size_leaf_vector":"1"}},{"base_weights":[3.1478578E-1,6.261793E-1,6.788592E-2,-9.030703E-2,1.9747587E-1,1.8129942E-1,-2.0810965E-1,1.8099327E-1,-3.6504126E-1,1.4088053E-1,-4.2203206E-1,-1.4905962E-1,-1.5583628E-1,1.2035943E-1,-1.0281698E-1],"categories":[],"categories_nodes":[],"categories_segments":[],"categories_sizes":[],"default_left":[0,0,0,0,0,0,0,0,0,0,0,0,0,0,0],"id":23,"left_children":[1,3,5,-1,-1,-1,7,-1,9,-1,11,-1,13,-1,-1],"loss_changes":[7.0144844E0,1.4017029E0,7.871736E0,0E0,0E0,0E0,4.7137933E0,0E0,1.6343641E0,0E0,4.9606752E-1,0E0,9.468303E-1,0E0,0E0],"parents":[2147483647,0,0,1,1,2,2,6,6,8,8,10,10,12,12],"right_children":[2,4,6,-1,-1,-1,8,-1,10,-1,12,-1,14,-1,-1],"split_conditions":[2.00001E0,2.00001E0,2.00001E0,-9.030703E-2,1.9747587E-1,1.8129942E-1,2.00001E0,1.8099327E-1,2.00001E0,1.4088053E-1,2.00001E0,-1.4905962E-1,2.00001E0,1.2035943E-1,-1.0281698E-1],"split_indices":[36,45,43,0,0,0,44,0,35,0,21,0,9,0,0],"split_type":[0,0,0,0,0,0,0,0,0,0,0,0,0,0,0],"sum_hessian":[9.0788704E1,3.947107E1,5.131763E1,1.0393543E0,3.8431717E1,1.7029055E1,3.4288574E1,5.095855E0,2.919272E1,1.4031612E0,2.7789558E1,2.1015196E1,6.7743626E0,1.4137638E0,5.360599E0],"tree_param":{"num_deleted":"0","num_feature":"50","num_nodes":"15","size_leaf_vector":"1"}},{"base_weights":[-3.7377524E-1,1.8731265E-1,-4.6888098E-1,-2.9852358E-1,-1.5482898E-1,2.0232448E-2,-3.6600614E-1,-5.4354712E-2,-1.3721862E-1,-8.2912065E-2,5.6566987E-2],"categories":[],"categories_nodes":[],"categories_segments":[],"categories_sizes":[],"default_left":[0,0,0,0,0,0,0,0,0,0,0],"id":24,"left_children":[1,-1,3,5,-1,-1,7,9,-1,-1,-1],"loss_changes":[4.0704184E0,0E0,1.4276695E-1,2.810439E-1,0E0,0E0,2.2919369E-1,2.2239682E-1,0E0,0E0,0E0],"parents":[2147483647,0,0,2,2,3,3,6,6,7,7],"right_children":[2,-1,4,6,-1,-1,8,10,-1,-1,-1],"split_conditions":[2.00001E0,1.8731265E-1,2.00001E0,2.00001E0,-1.5482898E-1,2.0232448E-2,2.00001E0,5.2E1,-1.3721862E-1,-8.2912065E-2,5.6566987E-2],"split_indices":[45,0,12,15,0,0,43,0,0,0,0],"split_type":[0,0,0,0,0,0,0,0,0,0,0],"sum_hessian":[3.8794224E1,2.890707E0,3.5903515E1,9.380511E0,2.6523006E1,1.4605274E0,7.9199834E0,2.1574626E0,5.762521E0,1.0552335E0,1.1022291E0],"tree_param":{"num_deleted":"0","num_feature":"50","num_nodes":"11","size_leaf_vector":"1"}},{"base_weights":[-2.4758537E-1,4.4104612E-1,-4.7874805E-1,1.7342299E-1,4.0521972E-2,-1.531063E-1,2.2610068E-2,8.185726E-2,-8.102256E-2],"categories":[],"categories_nodes":[],"categories_segments":[],"categories_sizes":[],"default_left":[0,0,0,0,0,0,0,0,0],"id":25,"left_children":[1,3,5,-1,7,-1,-1,-1,-1],"loss_changes":[5.978998E0,5.049257E-1,5.21955E-1,0E0,3.2838047E-1,0E0,0E0,0E0,0E0],"parents":[2147483647,0,0,1,1,2,2,4,4],"right_children":[2,4,6,-1,8,-1,-1,-1,-1],"split_conditions":[2.00001E0,2.00001E0,8.2E1,1.7342299E-1,2.00001E0,-1.531063E-1,2.2610068E-2,8.185726E-2,-8.102256E-2],"split_indices":[31,38,0,0,1,0,0,0,0],"split_type":[0,0,0,0,0,0,0,0,0],"sum_hessian":[3.523341E1,8.626677E0,2.6606735E1,6.0973153E0,2.529361E0,2.5245712E1,1.361023E0,1.51649E0,1.012871E0],"tree_param":{"num_deleted":"0","num_feature":"50","num_nodes":"9","size_leaf_vector":"1"}},{"base_weights":[-2.4487967E-2,3.7748384E-1,-1.5232229E-1,1.8357185E-1,5.3283844E-2,1.7044932E-1,-1.4138132E-1],"categories":[],"categories_nodes":[],"categories_segments":[],"categories_sizes":[],"default_left":[0,0,0,0,0,0,0],"id":26,"left_children":[1,3,-1,-1,5,-1,-1],"loss_changes":[9.482176E0,1.9952638E0,0E0,0E0,3.5877724E0,0E0,0E0],"parents":[2147483647,0,0,1,1,4,4],"right_children":[2,4,-1,-1,6,-1,-1],"split_conditions":[2.00001E0,2.00001E0,-1.5232229E-1,1.8357185E-1,2.00001E0,1.7044932E-1,-1.4138132E-1],"split_indices":[33,38,0,0,46,0,0],"split_type":[0,0,0,0,0,0,0],"sum_hessian":[4.682659E1,2.5682585E1,2.1144009E1,1.4390024E1,1.1292561E1,5.6568775E0,5.635683E0],"tree_param":{"num_deleted":"0","num_feature":"50","num_nodes":"7","size_leaf_vector":"1"}},{"base_weights":[-1.656465E-2,4.5763838E-1,-2.0285474E-1,-1.0324854E-1,1.8231988E-1,3.0472583E-1,-1.5293622E-1,-1.14444345E-1,4.8845428E-1,1.7616494E-1,1.1821903E-1,1.4044712E-1,-9.2389174E-2],"categories":[],"categories_nodes":[],"categories_segments":[],"categories_sizes":[],"default_left":[0,0,0,0,0,0,0,0,0,0,0,0,0],"id":27,"left_children":[1,3,5,-1,-1,7,-1,-1,9,-1,11,-1,-1],"loss_changes":[4.3466783E0,1.8806009E0,5.6493545E0,0E0,0E0,1.9406414E0,0E0,0E0,3.4795165E-1,0E0,6.89384E-1,0E0,0E0],"parents":[2147483647,0,0,1,1,2,2,5,5,8,8,10,10],"right_children":[2,4,6,-1,-1,8,-1,-1,10,-1,12,-1,-1],"split_conditions":[2.00001E0,2.00001E0,2.00001E0,-1.0324854E-1,1.8231988E-1,2.00001E0,-1.5293622E-1,-1.14444345E-1,2.00001E0,1.7616494E-1,2.00001E0,1.4044712E-1,-9.2389174E-2],"split_indices":[39,36,34,0,0,43,0,0,38,0,46,0,0],"split_type":[0,0,0,0,0,0,0,0,0,0,0,0,0],"sum_hessian":[4.7153458E1,1.2888663E1,3.4264793E1,1.8284069E0,1.1060257E1,1.2914695E1,2.1350098E1,2.5002363E0,1.0414458E1,7.758718E0,2.6557405E0,1.4042363E0,1.2515043E0],"tree_param":{"num_deleted":"0","num_feature":"50","num_nodes":"13","size_leaf_vector":"1"}},{"base_weights":[2.8910717E-1,1.7204705E-1,6.6123195E-2,-4.4264832E-1,3.011475E-1,-1.39658E-1,-5.406974E-2,-1.3613725E-1,4.5508802E-1,-1.3187024E-1,6.164941E-1,3.5093173E-1,1.9824083E-1,-3.6891713E-3,1.4728494E-1],"categories":[],"categories_nodes":[],"categories_segments":[],"categories_sizes":[],"default_left":[0,0,0,0,0,0,0,0,0,0,0,0,0,0,0],"id":28,"left_children":[1,-1,3,5,7,-1,-1,-1,9,-1,11,13,-1,-1,-1],"loss_changes":[4.850065E0,0E0,5.43464E0,2.6330948E-3,3.8000634E0,0E0,0E0,0E0,4.051948E0,0E0,3.400421E-2,2.7883166E-1,0E0,0E0,0E0],"parents":[2147483647,0,0,2,2,3,3,4,4,8,8,10,10,11,11],"right_children":[2,-1,4,6,8,-1,-1,-1,10,-1,12,14,-1,-1,-1],"split_conditions":[2.00001E0,1.7204705E-1,2.00001E0,8.2E1,2.00001E0,-1.39658E-1,-5.406974E-2,-1.3613725E-1,2.00001E0,-1.3187024E-1,2.00001E0,2.00001E0,1.9824083E-1,-3.6891713E-3,1.4728494E-1],"split_indices":[36,0,38,0,39,0,0,0,46,0,12,47,0,0,0],"split_type":[0,0,0,0,0,0,0,0,0,0,0,0,0,0,0],"sum_hessian":[7.608194E1,3.274661E1,4.3335327E1,1.3413938E1,2.992139E1,1.1626312E1,1.787625E0,4.7379966E0,2.5183393E1,3.5855792E0,2.1597815E1,4.36378E0,1.7234035E1,1.4679248E0,2.8958554E0],"tree_param":{"num_deleted":"0","num_feature":"50","num_nodes":"15","size_leaf_vector":"1"}},{"base_weights":[-3.4840208E-1,1.6425583E-1,-4.4670692E-1,-2.5623798E-1,-1.5121578E-1,2.3727382E-2,-3.2890233E-1,-3.7967667E-3,-1.304806E-1],"categories":[],"categories_nodes":[],"categories_segments":[],"categories_sizes":[],"default_left":[0,0,0,0,0,0,0,0,0],"id":29,"left_children":[1,-1,3,5,-1,-1,7,-1,-1],"loss_changes":[3.1125774E0,0E0,1.9736862E-1,2.4413657E-1,0E0,0E0,2.4771005E-1,0E0,0E0],"parents":[2147483647,0,0,2,2,3,3,6,6],"right_children":[2,-1,4,6,-1,-1,8,-1,-1],"split_conditions":[2.00001E0,1.6425583E-1,2.00001E0,2.00001E0,-1.5121578E-1,2.3727382E-2,2.00001E0,-3.7967667E-3,-1.304806E-1],"split_indices":[45,0,12,15,0,0,43,0,0],"split_type":[0,0,0,0,0,0,0,0,0],"sum_hessian":[3.1563702E1,2.6690602E0,2.8894642E1,7.9517736E0,2.094287E1,1.4004719E0,6.5513015E0,1.926078E0,4.6252236E0],"tree_param":{"num_deleted":"0","num_feature":"50","num_nodes":"9","size_leaf_vector":"1"}},{"base_weights":[-2.3095413E-1,3.9513445E-1,-4.6108168E-1,1.5747082E-1,3.8706314E-2,3.6521863E-2,-1.493411E-1,1.7978981E-2,9.3279104E-4],"categories":[],"categories_nodes":[],"categories_segments":[],"categories_sizes":[],"default_left":[0,0,0,0,0,0,0,0,0],"id":30,"left_children":[1,3,5,-1,7,-1,-1,-1,-1],"loss_changes":[4.4479566E0,3.7265074E-1,5.338273E-1,0E0,2.3424947E-3,0E0,0E0,0E0,0E0],"parents":[2147483647,0,0,1,1,2,2,4,4],"right_children":[2,4,6,-1,8,-1,-1,-1,-1],"split_conditions":[2.00001E0,2.00001E0,2.00001E0,1.5747082E-1,2.00001E0,3.6521863E-2,-1.493411E-1,1.7978981E-2,9.3279104E-4],"split_indices":[31,38,30,0,49,0,0,0,0],"split_type":[0,0,0,0,0,0,0,0,0],"sum_hessian":[2.860689E1,7.496036E0,2.1110855E1,5.1487904E0,2.3472455E0,1.1140714E0,1.9996782E1,1.0422623E0,1.3049833E0],"tree_param":{"num_deleted":"0","num_feature":"50","num_nodes":"9","size_leaf_vector":"1"}},{"base_weights":[-2.5441213E-2,3.4844545E-1,-1.4864525E-1,1.6929539E-1,4.5855697E-2,1.5477757E-1,-1.3465825E-1],"categories":[],"categories_nodes":[],"categories_segments":[],"categories_sizes":[],"default_left":[0,0,0,0,0,0,0],"id":31,"left_children":[1,3,-1,-1,5,-1,-1],"loss_changes":[7.0085897E0,1.4276271E0,0E0,0E0,2.6392825E0,0E0,0E0],"parents":[2147483647,0,0,1,1,4,4],"right_children":[2,4,-1,-1,6,-1,-1],"split_conditions":[2.00001E0,2.00001E0,-1.4864525E-1,1.6929539E-1,2.00001E0,1.5477757E-1,-1.3465825E-1],"split_indices":[33,38,0,0,46,0,0],"split_type":[0,0,0,0,0,0,0],"sum_hessian":[3.789742E1,2.1251787E1,1.6645634E1,1.189835E1,9.353438E0,4.7742105E0,4.579228E0],"tree_param":{"num_deleted":"0","num_feature":"50","num_nodes":"7","size_leaf_vector":"1"}},{"base_weights":[-1.6194133E-2,4.2041838E-1,-1.938375E-1,-9.4270624E-2,1.6737096E-1,2.8373954E-1,-1.4932522E-1,-1.0496091E-1,4.4745782E-1,1.609739E-1,1.1165554E-1,1.22653626E-1,-8.296932E-2],"categories":[],"categories_nodes":[],"categories_segments":[],"categories_sizes":[],"default_left":[0,0,0,0,0,0,0,0,0,0,0,0,0],"id":32,"left_children":[1,3,5,-1,-1,7,-1,-1,9,-1,11,-1,-1],"loss_changes":[3.1383035E0,1.3584116E0,4.3065333E0,0E0,0E0,1.3803282E0,0E0,0E0,2.3378634E-1,0E0,4.9623913E-1,0E0,0E0],"parents":[2147483647,0,0,1,1,2,2,5,5,8,8,10,10],"right_children":[2,4,6,-1,-1,8,-1,-1,10,-1,12,-1,-1],"split_conditions":[2.00001E0,2.00001E0,2.00001E0,-9.4270624E-2,1.6737096E-1,2.00001E0,-1.4932522E-1,-1.0496091E-1,2.00001E0,1.609739E-1,2.00001E0,1.22653626E-1,-8.296932E-2],"split_indices":[39,36,34,0,0,43,0,0,38,0,46,0,0],"split_type":[0,0,0,0,0,0,0,0,0,0,0,0,0],"sum_hessian":[3.8411537E1,1.0713417E1,2.769812E1,1.4862103E0,9.227207E0,1.07973175E1,1.6900803E1,1.983585E0,8.813733E0,6.492676E0,2.3210573E0,1.2845676E0,1.0364896E0],"tree_param":{"num_deleted":"0","num_feature":"50","num_nodes":"13","size_leaf_vector":"1"}},{"base_weights":[2.6420367E-1,5.294489E-1,5.8938876E-2,2.586488E-1,1.6661775E-1,-4.14911E-1,2.736402E-1,-1.3165806E-2,1.1902259E-1,-4.3911746E-1,-4.88955E-2,-1.2759002E-1,4.0977004E-1,-1.9139531E-1,-1.4303584E-1,-1.2412448E-1,5.573251E-1,-8.124305E-2,-4.680808E-3,3.0172035E-1,1.8064192E-1,1.363527E-1,-1.7609527E-2],"categories":[],"categories_nodes":[],"categories_segments":[],"categories_sizes":[],"default_left":[0,0,0,0,0,0,0,0,0,0,0,0,0,0,0,0,0,0,0,0,0,0,0],"id":33,"left_children":[1,3,5,7,-1,9,11,-1,-1,13,-1,-1,15,17,-1,-1,19,-1,-1,21,-1,-1,-1],"loss_changes":[3.4647164E0,5.2268505E-2,3.9106107E0,1.9746211E-1,0E0,1.8241405E-3,2.6754427E0,0E0,0E0,5.6979656E-3,0E0,0E0,2.9660635E0,3.824278E-2,0E0,0E0,4.1885853E-2,0E0,0E0,2.973784E-1,0E0,0E0,0E0],"parents":[2147483647,0,0,1,1,2,2,3,3,5,5,6,6,9,9,12,12,13,13,16,16,19,19],"right_children":[2,4,6,8,-1,10,12,-1,-1,14,-1,-1,16,18,-1,-1,20,-1,-1,22,-1,-1,-1],"split_conditions":[2.00001E0,2.00001E0,2.00001E0,5.4E1,1.6661775E-1,8.2E1,2.00001E0,-1.3165806E-2,1.1902259E-1,5.1E1,-4.88955E-2,-1.2759002E-1,2.00001E0,2.00001E0,-1.4303584E-1,-1.2412448E-1,2.00001E0,-8.124305E-2,-4.680808E-3,5.4E1,1.8064192E-1,1.363527E-1,-1.7609527E-2],"split_indices":[36,5,38,0,0,0,39,0,0,0,0,0,46,33,0,0,12,0,0,0,0,0,0],"split_type":[0,0,0,0,0,0,0,0,0,0,0,0,0,0,0,0,0,0,0,0,0,0,0],"sum_hessian":[6.320956E1,2.6886808E1,3.6322754E1,3.3097012E0,2.3577106E1,1.1035248E1,2.5287504E1,1.251065E0,2.0586362E0,9.389966E0,1.6452818E0,3.7759874E0,2.1511517E1,2.0420115E0,7.3479543E0,2.9945633E0,1.8516954E1,1.0342683E0,1.0077434E0,3.915741E0,1.4601213E1,2.5666356E0,1.3491056E0],"tree_param":{"num_deleted":"0","num_feature":"50","num_nodes":"23","size_leaf_vector":"1"}},{"base_weights":[-3.1748298E-1,1.5220301E-1,-4.2320755E-1,-2.169039E-1,-1.4765906E-1,2.6215311E-2,-2.931484E-1,4.6229754E-3,-1.2384812E-1],"categories":[],"categories_nodes":[],"categories_segments":[],"categories_sizes":[],"default_left":[0,0,0,0,0,0,0,0,0],"id":34,"left_children":[1,-1,3,5,-1,-1,7,-1,-1],"loss_changes":[2.5490959E0,0E0,2.3871088E-1,2.0822111E-1,0E0,0E0,2.4725693E-1,0E0,0E0],"parents":[2147483647,0,0,2,2,3,3,6,6],"right_children":[2,-1,4,6,-1,-1,8,-1,-1],"split_conditions":[2.00001E0,1.5220301E-1,2.00001E0,2.00001E0,-1.4765906E-1,2.6215311E-2,2.00001E0,4.6229754E-3,-1.2384812E-1],"split_indices":[45,0,12,15,0,0,43,0,0],"split_type":[0,0,0,0,0,0,0,0,0],"sum_hessian":[2.5769108E1,2.496166E0,2.3272942E1,6.870779E0,1.6402163E1,1.3473725E0,5.5234065E0,1.7871006E0,3.736306E0],"tree_param":{"num_deleted":"0","num_feature":"50","num_nodes":"9","size_leaf_vector":"1"}},{"base_weights":[-2.1377675E-1,3.569775E-1,-4.4306034E-1,1.4485747E-1,1.1678299E-2,-1.4662126E-1,3.2248337E-2],"categories":[],"categories_nodes":[],"categories_segments":[],"categories_sizes":[],"default_left":[0,0,0,0,0,0,0],"id":35,"left_children":[1,3,5,-1,-1,-1,-1],"loss_changes":[3.3304915E0,2.8152168E-1,4.9866295E-1,0E0,0E0,0E0,0E0],"parents":[2147483647,0,0,1,1,2,2],"right_children":[2,4,6,-1,-1,-1,-1],"split_conditions":[2.00001E0,2.00001E0,8.2E1,1.4485747E-1,1.1678299E-2,-1.4662126E-1,3.2248337E-2],"split_indices":[31,38,0,0,0,0,0],"split_type":[0,0,0,0,0,0,0],"sum_hessian":[2.3241312E1,6.501139E0,1.6740171E1,4.2864313E0,2.2147074E0,1.5561392E1,1.1787802E0],"tree_param":{"num_deleted":"0","num_feature":"50","num_nodes":"7","size_leaf_vector":"1"}},{"base_weights":[-2.719313E-2,3.2575145E-1,-1.4509295E-1,1.5839025E-1,3.8923178E-2,1.4184164E-1,-1.2762102E-1],"categories":[],"categories_nodes":[],"categories_segments":[],"categories_sizes":[],"default_left":[0,0,0,0,0,0,0],"id":36,"left_children":[1,3,-1,-1,5,-1,-1],"loss_changes":[5.223646E0,1.0427029E0,0E0,0E0,1.9457108E0,0E0,0E0],"parents":[2147483647,0,0,1,1,4,4],"right_children":[2,4,-1,-1,6,-1,-1],"split_conditions":[2.00001E0,2.00001E0,-1.4509295E-1,1.5839025E-1,2.00001E0,1.4184164E-1,-1.2762102E-1],"split_indices":[33,38,0,0,46,0,0],"split_type":[0,0,0,0,0,0,0],"sum_hessian":[3.0446617E1,1.7331543E1,1.3115075E1,9.672001E0,7.6595416E0,3.9501393E0,3.7094026E0],"tree_param":{"num_deleted":"0","num_feature":"50","num_nodes":"7","size_leaf_vector":"1"}},{"base_weights":[-1.5777493E-2,3.916578E-1,-1.8656784E-1,-8.5546955E-2,1.5604803E-1,2.6482666E-1,-1.4580375E-1,-9.564767E-2,4.1326472E-1,1.4884484E-1,3.0661631E-2],"categories":[],"categories_nodes":[],"categories_segments":[],"categories_sizes":[],"default_left":[0,0,0,0,0,0,0,0,0,0,0],"id":37,"left_children":[1,3,5,-1,-1,7,-1,-1,9,-1,-1],"loss_changes":[2.3086061E0,1.0016778E0,3.2800689E0,0E0,0E0,9.933914E-1,0E0,0E0,1.6494203E-1,0E0,0E0],"parents":[2147483647,0,0,1,1,2,2,5,5,8,8],"right_children":[2,4,6,-1,-1,8,-1,-1,10,-1,-1],"split_conditions":[2.00001E0,2.00001E0,2.00001E0,-8.5546955E-2,1.5604803E-1,2.00001E0,-1.4580375E-1,-9.564767E-2,2.00001E0,1.4884484E-1,3.0661631E-2],"split_indices":[39,36,34,0,0,43,0,0,38,0,0],"split_type":[0,0,0,0,0,0,0,0,0,0,0],"sum_hessian":[3.1126219E1,8.811769E0,2.2314451E1,1.211546E0,7.6002226E0,8.945406E0,1.3369045E1,1.5810221E0,7.364383E0,5.3450985E0,2.019285E0],"tree_param":{"num_deleted":"0","num_feature":"50","num_nodes":"11","size_leaf_vector":"1"}},{"base_weights":[2.4255174E-1,4.9715266E-1,5.0477892E-2,2.2882795E-1,1.5723395E-1,-3.9283985E-1,2.496238E-1,-1.1926944E-2,1.0745431E-1,-4.6982765E-2,-4.2240876E-1,-1.1912596E-1,3.7090588E-1,-3.302029E-2,-1.4026019E-1,-1.1710575E-1,5.08678E-1,2.5784063E-1,1.6675952E-1,-2.6652493E-2,1.2627253E-1],"categories":[],"categories_nodes":[],"categories_segments":[],"categories_sizes":[],"default_left":[0,0,0,0,0,0,0,0,0,0,0,0,0,0,0,0,0,0,0,0,0],"id":38,"left_children":[1,3,5,7,-1,9,11,-1,-1,-1,13,-1,15,-1,-1,-1,17,19,-1,-1,-1],"loss_changes":[2.5758226E0,4.4700146E-2,2.8727398E0,1.4809391E-1,0E0,4.609585E-3,1.8962202E0,0E0,0E0,0E0,6.713569E-2,0E0,2.2221029E0,0E0,0E0,0E0,5.5185318E-2,2.9295683E-1,0E0,0E0,0E0],"parents":[2147483647,0,0,1,1,2,2,3,3,5,5,6,6,10,10,12,12,16,16,17,17],"right_children":[2,4,6,8,-1,10,12,-1,-1,-1,14,-1,16,-1,-1,-1,18,20,-1,-1,-1],"split_conditions":[2.00001E0,2.00001E0,2.00001E0,5.4E1,1.5723395E-1,2.00001E0,2.00001E0,-1.1926944E-2,1.0745431E-1,-4.6982765E-2,5.1E1,-1.1912596E-1,2.00001E0,-3.302029E-2,-1.4026019E-1,-1.1710575E-1,2.00001E0,2.00001E0,1.6675952E-1,-2.6652493E-2,1.2627253E-1],"split_indices":[36,5,38,0,0,25,39,0,0,0,0,0,46,0,0,0,12,47,0,0,0],"split_type":[0,0,0,0,0,0,0,0,0,0,0,0,0,0,0,0,0,0,0,0,0],"sum_hessian":[5.2186142E1,2.1757473E1,3.0428669E1,2.8527734E0,1.89047E1,9.130557E0,2.1298111E1,1.1524714E0,1.7003021E0,1.7161753E0,7.414382E0,3.0042937E0,1.8293818E1,1.3701105E0,6.0442715E0,2.5224931E0,1.5771324E1,3.5206158E0,1.2250709E1,1.271849E0,2.248767E0],"tree_param":{"num_deleted":"0","num_feature":"50","num_nodes":"21","size_leaf_vector":"1"}},{"base_weights":[-2.8730804E-1,1.407131E-1,-3.9819336E-1,-1.8005499E-1,-1.4406596E-1,-1.0934505E-1,-1.3712237E-2,6.0889777E-2,-9.250782E-2],"categories":[],"categories_nodes":[],"categories_segments":[],"categories_sizes":[],"default_left":[0,0,0,0,0,0,0,0,0],"id":39,"left_children":[1,-1,3,5,-1,-1,7,-1,-1],"loss_changes":[2.0422006E0,0E0,2.6844978E-1,2.1037266E-1,0E0,0E0,3.6458036E-1,0E0,0E0],"parents":[2147483647,0,0,2,2,3,3,6,6],"right_children":[2,-1,4,6,-1,-1,8,-1,-1],"split_conditions":[2.00001E0,1.407131E-1,2.00001E0,2.00001E0,-1.4406596E-1,-1.0934505E-1,2.00001E0,6.0889777E-2,-9.250782E-2],"split_indices":[45,0,12,33,0,0,26,0,0],"split_type":[0,0,0,0,0,0,0,0,0],"sum_hessian":[2.112315E1,2.2878275E0,1.8835323E1,6.020281E0,1.2815042E1,2.2900662E0,3.7302148E0,2.3288078E0,1.4014069E0],"tree_param":{"num_deleted":"0","num_feature":"50","num_nodes":"9","size_leaf_vector":"1"}},{"base_weights":[-1.977347E-1,3.2319525E-1,-4.2416966E-1,1.3400577E-1,1.1210451E-2,-1.4317018E-1,2.8805858E-2],"categories":[],"categories_nodes":[],"categories_segments":[],"categories_sizes":[],"default_left":[0,0,0,0,0,0,0],"id":40,"left_children":[1,3,5,-1,-1,-1,-1],"loss_changes":[2.494127E0,2.1703488E-1,4.422233E-1,0E0,0E0,0E0,0E0],"parents":[2147483647,0,0,1,1,2,2],"right_children":[2,4,6,-1,-1,-1,-1],"split_conditions":[2.00001E0,2.00001E0,8.2E1,1.3400577E-1,1.1210451E-2,-1.4317018E-1,2.8805858E-2],"split_indices":[31,38,0,0,0,0,0],"split_type":[0,0,0,0,0,0,0],"sum_hessian":[1.898222E1,5.6217217E0,1.3360497E1,3.532663E0,2.0890586E0,1.219869E1,1.1618071E0],"tree_param":{"num_deleted":"0","num_feature":"50","num_nodes":"7","size_leaf_vector":"1"}},{"base_weights":[-2.8588481E-2,3.0700198E-1,-1.4150332E-1,1.4952937E-1,3.3219073E-2,1.31047E-1,-1.2052008E-1],"categories":[],"categories_nodes":[],"categories_segments":[],"categories_sizes":[],"default_left":[0,0,0,0,0,0,0],"id":41,"left_children":[1,3,-1,-1,5,-1,-1],"loss_changes":[3.9327588E0,7.749045E-1,0E0,0E0,1.4544339E0,0E0,0E0],"parents":[2147483647,0,0,1,1,4,4],"right_children":[2,4,-1,-1,6,-1,-1],"split_conditions":[2.00001E0,2.00001E0,-1.4150332E-1,1.4952937E-1,2.00001E0,1.31047E-1,-1.2052008E-1],"split_indices":[33,38,0,0,46,0,0],"split_type":[0,0,0,0,0,0,0],"sum_hessian":[2.4474392E1,1.4101339E1,1.0373053E1,7.815912E0,6.285427E0,3.2579691E0,3.0274577E0],"tree_param":{"num_deleted":"0","num_feature":"50","num_nodes":"7","size_leaf_vector":"1"}},{"base_weights":[-1.4686719E-2,3.6725456E-1,-1.777841E-1,1.3419287E-1,1.956988E-1,2.4695186E-1,-1.4222927E-1,1.0239691E-1,3.0917323E-3,-8.6628154E-2,3.8061523E-1,1.3891888E-1,2.7432675E-2],"categories":[],"categories_nodes":[],"categories_segments":[],"categories_sizes":[],"default_left":[0,0,0,0,0,0,0,0,0,0,0,0,0],"id":42,"left_children":[1,3,5,-1,7,9,-1,-1,-1,-1,11,-1,-1],"loss_changes":[1.7058861E0,2.5177836E-2,2.5246046E0,0E0,1.1497645E-1,7.198873E-1,0E0,0E0,0E0,0E0,1.3048506E-1,0E0,0E0],"parents":[2147483647,0,0,1,1,2,2,4,4,5,5,10,10],"right_children":[2,4,6,-1,8,10,-1,-1,-1,-1,12,-1,-1],"split_conditions":[2.00001E0,2.00001E0,2.00001E0,1.3419287E-1,2.00001E0,2.00001E0,-1.4222927E-1,1.0239691E-1,3.0917323E-3,-8.6628154E-2,2.00001E0,1.3891888E-1,2.7432675E-2],"split_indices":[39,33,34,0,31,43,0,0,0,0,38,0,0],"split_type":[0,0,0,0,0,0,0,0,0,0,0,0,0],"sum_hessian":[2.5336473E1,7.207113E0,1.812936E1,3.8180714E0,3.3890414E0,7.518674E0,1.0610686E1,1.4270395E0,1.9620019E0,1.269652E0,6.2490215E0,4.3946924E0,1.854329E0],"tree_param":{"num_deleted":"0","num_feature":"50","num_nodes":"13","size_leaf_vector":"1"}},{"base_weights":[2.2254385E-1,4.6981323E-1,4.1321747E-2,2.0305236E-1,1.4940095E-1,-3.6762047E-1,2.2481316E-1,-1.13304E-2,9.722457E-2,-3.859749E-2,-4.006882E-1,-1.1066378E-1,3.330643E-1,-2.8063133E-2,-1.3448124E-1,-1.1079162E-1,4.6401355E-1,2.1721601E-1,5.143185E-1,-3.4370903E-2,1.17314376E-1,6.440041E-2,1.6630097E-1],"categories":[],"categories_nodes":[],"categories_segments":[],"categories_sizes":[],"default_left":[0,0,0,0,0,0,0,0,0,0,0,0,0,0,0,0,0,0,0,0,0,0,0],"id":43,"left_children":[1,3,5,7,-1,9,11,-1,-1,-1,13,-1,15,-1,-1,-1,17,19,21,-1,-1,-1,-1],"loss_changes":[1.95715E0,3.8440228E-2,2.0749276E0,1.1314984E-1,0E0,1.642716E-2,1.3405879E0,0E0,0E0,0E0,6.1599493E-2,0E0,1.6936519E0,0E0,0E0,0E0,6.6978455E-2,2.852025E-1,1.5608549E-2,0E0,0E0,0E0,0E0],"parents":[2147483647,0,0,1,1,2,2,3,3,5,5,6,6,10,10,12,12,16,16,17,17,18,18],"right_children":[2,4,6,8,-1,10,12,-1,-1,-1,14,-1,16,-1,-1,-1,18,20,22,-1,-1,-1,-1],"split_conditions":[2.00001E0,2.00001E0,2.00001E0,5.4E1,1.4940095E-1,2.00001E0,2.00001E0,-1.13304E-2,9.722457E-2,-3.859749E-2,5.1E1,-1.1066378E-1,2.00001E0,-2.8063133E-2,-1.3448124E-1,-1.1079162E-1,2.00001E0,2.00001E0,5.1E1,-3.4370903E-2,1.17314376E-1,6.440041E-2,1.6630097E-1],"split_indices":[36,5,38,0,0,25,39,0,0,0,0,0,46,0,0,0,12,1,0,0,0,0,0],"split_type":[0,0,0,0,0,0,0,0,0,0,0,0,0,0,0,0,0,0,0,0,0,0,0],"sum_hessian":[4.310921E1,1.7558695E1,2.5550516E1,2.4621756E0,1.50965185E1,7.602829E0,1.7947687E1,1.0536344E0,1.4085412E0,1.5187086E0,6.0841203E0,2.3965306E0,1.5551157E1,1.2139602E0,4.87016E0,2.1577048E0,1.3393453E1,3.1681929E0,1.022526E1,1.2064358E0,1.961757E0,1.9544966E0,8.270762E0],"tree_param":{"num_deleted":"0","num_feature":"50","num_nodes":"23","size_leaf_vector":"1"}},{"base_weights":[-2.5633803E-1,1.3207781E-1,-3.7229586E-1,-1.490268E-1,-1.4032929E-1,7.354291E-3,-1.02467865E-1,-8.585974E-2,6.1162625E-2],"categories":[],"categories_nodes":[],"categories_segments":[],"categories_sizes":[],"default_left":[0,0,0,0,0,0,0,0,0],"id":44,"left_children":[1,-1,3,5,-1,7,-1,-1,-1],"loss_changes":[1.6606973E0,0E0,2.80447E-1,1.9484343E-1,0E0,3.181725E-1,0E0,0E0,0E0],"parents":[2147483647,0,0,2,2,3,3,5,5],"right_children":[2,-1,4,6,-1,8,-1,-1,-1],"split_conditions":[2.00001E0,1.3207781E-1,2.00001E0,2.00001E0,-1.4032929E-1,2.00001E0,-1.02467865E-1,-8.585974E-2,6.1162625E-2],"split_indices":[45,0,12,26,0,33,0,0,0],"split_type":[0,0,0,0,0,0,0,0,0],"sum_hessian":[1.7530159E1,2.1025748E0,1.5427585E1,5.387951E0,1.0039634E1,3.5038319E0,1.8841192E0,1.2220569E0,2.281775E0],"tree_param":{"num_deleted":"0","num_feature":"50","num_nodes":"9","size_leaf_vector":"1"}},{"base_weights":[-1.836203E-1,2.886345E-1,-4.0475997E-1,1.2431275E-1,8.5415095E-3,-1.3954633E-1,2.5359983E-2],"categories":[],"categories_nodes":[],"categories_segments":[],"categories_sizes":[],"default_left":[0,0,0,0,0,0,0],"id":45,"left_children":[1,3,5,-1,-1,-1,-1],"loss_changes":[1.8576505E0,1.8120646E-1,3.871075E-1,0E0,0E0,0E0,0E0],"parents":[2147483647,0,0,1,1,2,2],"right_children":[2,4,6,-1,-1,-1,-1],"split_conditions":[2.00001E0,2.00001E0,8.2E1,1.2431275E-1,8.5415095E-3,-1.3954633E-1,2.5359983E-2],"split_indices":[31,38,0,0,0,0,0],"split_type":[0,0,0,0,0,0,0],"sum_hessian":[1.5669077E1,4.8998938E0,1.0769183E1,2.9037192E0,1.9961748E0,9.629881E0,1.1393021E0],"tree_param":{"num_deleted":"0","num_feature":"50","num_nodes":"7","size_leaf_vector":"1"}},{"base_weights":[-3.0856404E-2,2.909828E-1,-1.3779162E-1,1.4179555E-1,2.862301E-2,1.2135547E-1,-1.13150164E-1],"categories":[],"categories_nodes":[],"categories_segments":[],"categories_sizes":[],"default_left":[0,0,0,0,0,0,0],"id":46,"left_children":[1,3,-1,-1,5,-1,-1],"loss_changes":[2.9954584E0,5.805228E-1,0E0,0E0,1.0927674E0,0E0,0E0],"parents":[2147483647,0,0,1,1,4,4],"right_children":[2,4,-1,-1,6,-1,-1],"split_conditions":[2.00001E0,2.00001E0,-1.3779162E-1,1.4179555E-1,2.00001E0,1.2135547E-1,-1.13150164E-1],"split_indices":[33,38,0,0,46,0,0],"split_type":[0,0,0,0,0,0,0],"sum_hessian":[1.9754034E1,1.1463676E1,8.290357E0,6.2998533E0,5.163823E0,2.6822822E0,2.4815412E0],"tree_param":{"num_deleted":"0","num_feature":"50","num_nodes":"7","size_leaf_vector":"1"}},{"base_weights":[-1.0344383E-2,3.4417248E-1,-1.6955349E-1,3.5453066E-2,1.1500057E-1,2.2889173E-1,-1.384268E-1,-7.8298576E-2,3.5050437E-1,1.3006921E-1,2.3866208E-2],"categories":[],"categories_nodes":[],"categories_segments":[],"categories_sizes":[],"default_left":[0,0,0,0,0,0,0,0,0,0,0],"id":47,"left_children":[1,3,5,-1,-1,7,-1,-1,9,-1,-1],"loss_changes":[1.296315E0,1.7780125E-2,1.9437342E0,0E0,0E0,5.2943933E-1,0E0,0E0,1.07651055E-1,0E0,0E0],"parents":[2147483647,0,0,1,1,2,2,5,5,8,8],"right_children":[2,4,6,-1,-1,8,-1,-1,10,-1,-1],"split_conditions":[2.00001E0,2.00001E0,2.00001E0,3.5453066E-2,1.1500057E-1,2.00001E0,-1.384268E-1,-7.8298576E-2,2.00001E0,1.3006921E-1,2.3866208E-2],"split_indices":[39,17,34,0,0,43,0,0,38,0,0],"split_type":[0,0,0,0,0,0,0,0,0,0,0],"sum_hessian":[2.0933178E1,6.127371E0,1.4805808E1,1.4983659E0,4.629005E0,6.3512163E0,8.454592E0,1.0351692E0,5.3160467E0,3.6094213E0,1.7066256E0],"tree_param":{"num_deleted":"0","num_feature":"50","num_nodes":"11","size_leaf_vector":"1"}},{"base_weights":[2.0338714E-1,4.4547322E-1,3.1628016E-2,1.8166788E-1,1.4240965E-1,-3.428048E-1,1.9964848E-1,8.0033997E-4,8.312242E-2,-3.1165274E-2,-3.7931505E-1,-1.0361702E-1,2.999646E-1,-2.387468E-2,-1.285809E-1,-1.04737274E-1,4.2534447E-1,1.8185548E-1,4.7972634E-1,-4.7778923E-2,1.1222664E-1,5.578765E-2,1.5630148E-1],"categories":[],"categories_nodes":[],"categories_segments":[],"categories_sizes":[],"default_left":[0,0,0,0,0,0,0,0,0,0,0,0,0,0,0,0,0,0,0,0,0,0,0],"id":48,"left_children":[1,3,5,7,-1,9,11,-1,-1,-1,13,-1,15,-1,-1,-1,17,19,21,-1,-1,-1,-1],"loss_changes":[1.5191281E0,3.1162739E-2,1.4931678E0,5.2862346E-2,0E0,2.49933E-2,9.928408E-1,0E0,0E0,0E0,5.4925323E-2,0E0,1.3098936E0,0E0,0E0,0E0,7.710147E-2,3.1377274E-1,1.8737316E-2,0E0,0E0,0E0,0E0],"parents":[2147483647,0,0,1,1,2,2,3,3,5,5,6,6,10,10,12,12,16,16,17,17,18,18],"right_children":[2,4,6,8,-1,10,12,-1,-1,-1,14,-1,16,-1,-1,-1,18,20,22,-1,-1,-1,-1],"split_conditions":[2.00001E0,2.00001E0,2.00001E0,5.7E1,1.4240965E-1,2.00001E0,2.00001E0,8.0033997E-4,8.312242E-2,-3.1165274E-2,5.1E1,-1.0361702E-1,2.00001E0,-2.387468E-2,-1.285809E-1,-1.04737274E-1,2.00001E0,2.00001E0,5.1E1,-4.7778923E-2,1.1222664E-1,5.578765E-2,1.5630148E-1],"split_indices":[36,5,38,0,0,25,39,0,0,0,0,0,46,0,0,0,12,47,0,0,0,0,0],"split_type":[0,0,0,0,0,0,0,0,0,0,0,0,0,0,0,0,0,0,0,0,0,0,0],"sum_hessian":[3.5873474E1,1.4227258E1,2.1646217E1,2.1386614E0,1.2088596E1,6.382528E0,1.5263689E1,1.1009839E0,1.0376775E0,1.3557749E0,5.026753E0,1.992889E0,1.32708E1,1.0791006E0,3.9476523E0,1.8595285E0,1.1411271E1,2.8764272E0,8.534844E0,1.0985531E0,1.777874E0,1.7297434E0,6.805101E0],"tree_param":{"num_deleted":"0","num_feature":"50","num_nodes":"23","size_leaf_vector":"1"}},{"base_weights":[-2.2695608E-1,1.24166146E-1,-3.4596956E-1,-1.2275501E-1,-1.36346E-1,2.5648981E-2,-9.6038975E-2,-8.082801E-2,6.275369E-2],"categories":[],"categories_nodes":[],"categories_segments":[],"categories_sizes":[],"default_left":[0,0,0,0,0,0,0,0,0],"id":49,"left_children":[1,-1,3,5,-1,7,-1,-1,-1],"loss_changes":[1.3434107E0,0E0,2.7888238E-1,1.8072933E-1,0E0,2.8856373E-1,0E0,0E0,0E0],"parents":[2147483647,0,0,2,2,3,3,5,5],"right_children":[2,-1,4,6,-1,8,-1,-1,-1],"split_conditions":[2.00001E0,1.24166146E-1,2.00001E0,2.00001E0,-1.36346E-1,5.7E1,-9.6038975E-2,-8.082801E-2,6.275369E-2],"split_indices":[45,0,12,26,0,0,0,0,0],"split_type":[0,0,0,0,0,0,0,0,0],"sum_hessian":[1.4736651E1,1.9200811E0,1.281657E1,4.8897624E0,7.9268084E0,3.2877722E0,1.6019902E0,1.0812826E0,2.2064896E0],"tree_param":{"num_deleted":"0","num_feature":"50","num_nodes":"9","size_leaf_vector":"1"}},{"base_weights":[-1.6970307E-1,2.5875694E-1,-3.8466215E-1,1.15403265E-1,6.603534E-3,-1.3561597E-1,2.1984428E-2],"categories":[],"categories_nodes":[],"categories_segments":[],"categories_sizes":[],"default_left":[0,0,0,0,0,0,0],"id":50,"left_children":[1,3,5,-1,-1,-1,-1],"loss_changes":[1.3931143E0,1.4923853E-1,3.341794E-1,0E0,0E0,0E0,0E0],"parents":[2147483647,0,0,1,1,2,2],"right_children":[2,4,6,-1,-1,-1,-1],"split_conditions":[2.00001E0,2.00001E0,8.2E1,1.15403265E-1,6.603534E-3,-1.3561597E-1,2.1984428E-2],"split_indices":[31,38,0,0,0,0,0],"split_type":[0,0,0,0,0,0,0],"sum_hessian":[1.3045179E1,4.2901773E0,8.755002E0,2.392689E0,1.8974884E0,7.643104E0,1.1118983E0],"tree_param":{"num_deleted":"0","num_feature":"50","num_nodes":"7","size_leaf_vector":"1"}},{"base_weights":[-3.2000434E-2,2.7548593E-1,-1.337581E-1,1.3487291E-1,2.2241073E-2,1.1247025E-1,-1.06201276E-1],"categories":[],"categories_nodes":[],"categories_segments":[],"categories_sizes":[],"default_left":[0,0,0,0,0,0,0],"id":51,"left_children":[1,3,-1,-1,5,-1,-1],"loss_changes":[2.293883E0,4.487868E-1,0E0,0E0,8.348154E-1,0E0,0E0],"parents":[2147483647,0,0,1,1,4,4],"right_children":[2,4,-1,-1,6,-1,-1],"split_conditions":[2.00001E0,2.00001E0,-1.337581E-1,1.3487291E-1,2.00001E0,1.1247025E-1,-1.06201276E-1],"split_indices":[33,38,0,0,46,0,0],"split_type":[0,0,0,0,0,0,0],"sum_hessian":[1.6060492E1,9.406256E0,6.6542363E0,5.114847E0,4.291409E0,2.2169788E0,2.0744302E0],"tree_param":{"num_deleted":"0","num_feature":"50","num_nodes":"7","size_leaf_vector":"1"}},{"base_weights":[-7.7982843E-3,3.1625336E-1,-1.6197076E-1,1.1754595E-1,1.548161E-1,2.126388E-1,-1.3436301E-1,8.741096E-2,-5.2480507E-3,1.2173759E-1,-7.4043766E-2,-4.421929E-2,1.39530515E-2],"categories":[],"categories_nodes":[],"categories_segments":[],"categories_sizes":[],"default_left":[0,0,0,0,0,0,0,0,0,0,0,0,0],"id":52,"left_children":[1,3,5,-1,7,9,-1,-1,-1,-1,11,-1,-1],"loss_changes":[9.7287524E-1,1.602453E-2,1.5049093E0,0E0,9.115533E-2,3.8306484E-1,0E0,0E0,0E0,0E0,3.7027843E-2,0E0,0E0],"parents":[2147483647,0,0,1,1,2,2,4,4,5,5,10,10],"right_children":[2,4,6,-1,8,10,-1,-1,-1,-1,12,-1,-1],"split_conditions":[2.00001E0,2.00001E0,2.00001E0,1.1754595E-1,2.00001E0,2.00001E0,-1.3436301E-1,8.741096E-2,-5.2480507E-3,1.2173759E-1,6.7E1,-4.421929E-2,1.39530515E-2],"split_indices":[39,33,34,0,31,38,0,0,0,0,0,0,0],"split_type":[0,0,0,0,0,0,0,0,0,0,0,0,0],"sum_hessian":[1.7447845E1,5.2860084E0,1.2161837E1,2.6285498E0,2.6574585E0,5.375208E0,6.7866282E0,1.0970721E0,1.5603863E0,2.963241E0,2.411967E0,1.3611027E0,1.0508643E0],"tree_param":{"num_deleted":"0","num_feature":"50","num_nodes":"13","size_leaf_vector":"1"}},{"base_weights":[1.8502617E-1,4.223491E-1,2.1465575E-2,4.9290765E-2,1.357348E-1,-3.1839824E-1,1.7514576E-1,-2.4580738E-2,-3.5827908E-1,-9.8977834E-2,2.6745078E-1,-2.9047092E-2,-1.2146323E-1,-9.663264E-2,3.887784E-1,1.4823355E-1,4.4819716E-1,-5.0339524E-2,1.0430353E-1,4.8352238E-2,1.4723437E-1],"categories":[],"categories_nodes":[],"categories_segments":[],"categories_sizes":[],"default_left":[0,0,0,0,0,0,0,0,0,0,0,0,0,0,0,0,0,0,0,0,0],"id":53,"left_children":[1,3,5,-1,-1,7,9,-1,11,-1,13,-1,-1,-1,15,17,19,-1,-1,-1,-1],"loss_changes":[1.1967438E0,2.368927E-2,1.0713094E0,0E0,0E0,3.1085134E-2,7.4252874E-1,0E0,2.400297E-2,0E0,1.0134919E0,0E0,0E0,0E0,8.7236285E-2,2.8676134E-1,2.0241857E-2,0E0,0E0,0E0,0E0],"parents":[2147483647,0,0,1,1,2,2,5,5,6,6,8,8,10,10,14,14,15,15,16,16],"right_children":[2,4,6,-1,-1,8,10,-1,12,-1,14,-1,-1,-1,16,18,20,-1,-1,-1,-1],"split_conditions":[2.00001E0,2.00001E0,2.00001E0,4.9290765E-2,1.357348E-1,2.00001E0,2.00001E0,-2.4580738E-2,5.2E1,-9.8977834E-2,2.00001E0,-2.9047092E-2,-1.2146323E-1,-9.663264E-2,2.00001E0,2.00001E0,5.1E1,-5.0339524E-2,1.0430353E-1,4.8352238E-2,1.4723437E-1],"split_indices":[36,5,38,0,0,25,46,0,0,0,39,0,0,0,12,47,0,0,0,0,0],"split_type":[0,0,0,0,0,0,0,0,0,0,0,0,0,0,0,0,0,0,0,0,0],"sum_hessian":[3.006422E1,1.1620666E1,1.8443556E1,1.8885759E0,9.73209E0,5.4092255E0,1.3034329E1,1.2214553E0,4.1877704E0,1.6162542E0,1.1418076E1,1.0990458E0,3.0887246E0,1.6662934E0,9.751782E0,2.6239562E0,7.1278257E0,1.0766364E0,1.5473197E0,1.5390738E0,5.588752E0],"tree_param":{"num_deleted":"0","num_feature":"50","num_nodes":"21","size_leaf_vector":"1"}},{"base_weights":[-1.9765356E-1,1.1757639E-1,-3.1917477E-1,-9.993892E-2,-1.3199218E-1,4.257033E-2,-9.046705E-2,-2.2939336E-2,5.6213103E-2],"categories":[],"categories_nodes":[],"categories_segments":[],"categories_sizes":[],"default_left":[0,0,0,0,0,0,0,0,0],"id":54,"left_children":[1,-1,3,5,-1,7,-1,-1,-1],"loss_changes":[1.0945066E0,0E0,2.677276E-1,1.7014986E-1,0E0,8.472457E-2,0E0,0E0,0E0],"parents":[2147483647,0,0,2,2,3,3,5,5],"right_children":[2,-1,4,6,-1,8,-1,-1,-1],"split_conditions":[2.00001E0,1.1757639E-1,2.00001E0,2.00001E0,-1.3199218E-1,6.5E1,-9.046705E-2,-2.2939336E-2,5.6213103E-2],"split_indices":[45,0,12,26,0,0,0,0,0],"split_type":[0,0,0,0,0,0,0,0,0],"sum_hessian":[1.2530656E1,1.761141E0,1.0769515E1,4.4750876E0,6.294427E0,3.08405E0,1.3910378E0,1.9516767E0,1.1323732E0],"tree_param":{"num_deleted":"0","num_feature":"50","num_nodes":"9","size_leaf_vector":"1"}},{"base_weights":[-1.5675546E-1,2.314998E-1,-3.644392E-1,1.0712946E-1,4.583149E-3,-1.3140413E-1,1.8746903E-2],"categories":[],"categories_nodes":[],"categories_segments":[],"categories_sizes":[],"default_left":[0,0,0,0,0,0,0],"id":55,"left_children":[1,3,5,-1,-1,-1,-1],"loss_changes":[1.0512986E0,1.2464324E-1,2.8497326E-1,0E0,0E0,0E0,0E0],"parents":[2147483647,0,0,1,1,2,2],"right_children":[2,4,6,-1,-1,-1,-1],"split_conditions":[2.00001E0,2.00001E0,8.2E1,1.0712946E-1,4.583149E-3,-1.3140413E-1,1.8746903E-2],"split_indices":[31,38,0,0,0,0,0],"split_type":[0,0,0,0,0,0,0],"sum_hessian":[1.0991558E1,3.7905755E0,7.200982E0,1.9856377E0,1.804938E0,6.120282E0,1.0807E0],"tree_param":{"num_deleted":"0","num_feature":"50","num_nodes":"7","size_leaf_vector":"1"}},{"base_weights":[-3.3498153E-2,2.6256722E-1,-1.2956978E-1,1.2821865E-1,1.8795261E-2,1.0416536E-1,-9.90277E-2],"categories":[],"categories_nodes":[],"categories_segments":[],"categories_sizes":[],"default_left":[0,0,0,0,0,0,0],"id":56,"left_children":[1,3,-1,-1,5,-1,-1],"loss_changes":[1.7833847E0,3.4330946E-1,0E0,0E0,6.386397E-1,0E0,0E0],"parents":[2147483647,0,0,1,1,4,4],"right_children":[2,4,-1,-1,6,-1,-1],"split_conditions":[2.00001E0,2.00001E0,-1.2956978E-1,1.2821865E-1,2.00001E0,1.0416536E-1,-9.90277E-2],"split_indices":[33,38,0,0,46,0,0],"split_type":[0,0,0,0,0,0,0],"sum_hessian":[1.3158057E1,7.7441006E0,5.413956E0,4.170754E0,3.5733466E0,1.8431228E0,1.7302237E0],"tree_param":{"num_deleted":"0","num_feature":"50","num_nodes":"7","size_leaf_vector":"1"}},{"base_weights":[-2.7854934E-3,2.9861364E-1,-1.5335731E-1,2.6630908E-2,1.0006243E-1,1.9853842E-1,-1.3004494E-1,1.1390011E-1,-6.2301163E-2,-3.241101E-2,4.249868E-3],"categories":[],"categories_nodes":[],"categories_segments":[],"categories_sizes":[],"default_left":[0,0,0,0,0,0,0,0,0,0,0],"id":57,"left_children":[1,3,5,-1,-1,7,-1,-1,9,-1,-1],"loss_changes":[7.56244E-1,1.110357E-2,1.1802638E0,0E0,0E0,2.8849828E-1,0E0,0E0,1.2569222E-2,0E0,0E0],"parents":[2147483647,0,0,1,1,2,2,5,5,8,8],"right_children":[2,4,6,-1,-1,8,-1,-1,10,-1,-1],"split_conditions":[2.00001E0,2.00001E0,2.00001E0,2.6630908E-2,1.0006243E-1,2.00001E0,-1.3004494E-1,1.1390011E-1,6.6E1,-3.241101E-2,4.249868E-3],"split_indices":[39,17,34,0,0,38,0,0,0,0,0],"split_type":[0,0,0,0,0,0,0,0,0,0,0],"sum_hessian":[1.4654799E1,4.5546246E0,1.0100175E1,1.1552819E0,3.3993425E0,4.6057086E0,5.4944663E0,2.4493248E0,2.1563838E0,1.0910028E0,1.065381E0],"tree_param":{"num_deleted":"0","num_feature":"50","num_nodes":"11","size_leaf_vector":"1"}},{"base_weights":[1.6523719E-1,3.9712712E-1,1.0761534E-2,4.2624913E-2,1.2888679E-1,-2.9547602E-1,1.5131582E-1,-1.881881E-2,-3.385668E-1,-9.378042E-2,2.413564E-1,-2.8313987E-2,-1.15075774E-1,-9.005163E-2,3.545209E-1,4.2545E-1,1.2433533E-1,4.5872934E-2,1.4193493E-1,-5.3170007E-2,9.783273E-2],"categories":[],"categories_nodes":[],"categories_segments":[],"categories_sizes":[],"default_left":[0,0,0,0,0,0,0,0,0,0,0,0,0,0,0,0,0,0,0,0,0],"id":58,"left_children":[1,3,5,-1,-1,7,9,-1,11,-1,13,-1,-1,-1,15,17,19,-1,-1,-1,-1],"loss_changes":[9.4237864E-1,2.6295662E-2,7.7165955E-1,0E0,0E0,3.544393E-2,5.8661425E-1,0E0,1.372081E-2,0E0,7.6902586E-1,0E0,0E0,0E0,1.00607276E-1,1.5662432E-2,2.785328E-1,0E0,0E0,0E0,0E0],"parents":[2147483647,0,0,1,1,2,2,5,5,6,6,8,8,10,10,14,14,15,15,16,16],"right_children":[2,4,6,-1,-1,8,10,-1,12,-1,14,-1,-1,-1,16,18,20,-1,-1,-1,-1],"split_conditions":[2.00001E0,2.00001E0,2.00001E0,4.2624913E-2,1.2888679E-1,2.00001E0,2.00001E0,-1.881881E-2,2.00001E0,-9.378042E-2,2.00001E0,-2.8313987E-2,-1.15075774E-1,-9.005163E-2,6.4E1,2.00001E0,2.00001E0,4.5872934E-2,1.4193493E-1,-5.3170007E-2,9.783273E-2],"split_indices":[36,5,38,0,0,25,46,0,11,0,39,0,0,0,0,11,1,0,0,0,0],"split_type":[0,0,0,0,0,0,0,0,0,0,0,0,0,0,0,0,0,0,0,0,0],"sum_hessian":[2.5427046E1,9.538138E0,1.5888908E1,1.6850715E0,7.8530664E0,4.65168E0,1.1237228E1,1.1103086E0,3.541371E0,1.4247398E0,9.812489E0,1.0332718E0,2.5080993E0,1.4104589E0,8.40203E0,5.7744164E0,2.6276138E0,1.4859842E0,4.288432E0,1.1020805E0,1.5255332E0],"tree_param":{"num_deleted":"0","num_feature":"50","num_nodes":"21","size_leaf_vector":"1"}},{"base_weights":[-1.6687134E-1,1.12178095E-1,-2.9046664E-1,-7.6012954E-2,-1.2728076E-1,6.7540504E-2,-8.662535E-2,-8.397529E-2,9.82892E-2],"categories":[],"categories_nodes":[],"categories_segments":[],"categories_sizes":[],"default_left":[0,0,0,0,0,0,0,0,0],"id":59,"left_children":[1,-1,3,5,-1,7,-1,-1,-1],"loss_changes":[8.973377E-1,0E0,2.5950992E-1,1.7601074E-1,0E0,4.4148034E-1,0E0,0E0,0E0],"parents":[2147483647,0,0,2,2,3,3,5,5],"right_children":[2,-1,4,6,-1,8,-1,-1,-1],"split_conditions":[2.00001E0,1.12178095E-1,2.00001E0,6.6E1,-1.2728076E-1,5.8E1,-8.662535E-2,-8.397529E-2,9.82892E-2],"split_indices":[45,0,12,0,0,0,0,0,0],"split_type":[0,0,0,0,0,0,0,0,0],"sum_hessian":[1.0800161E1,1.6323417E0,9.167819E0,4.124817E0,5.0430026E0,2.8704119E0,1.254405E0,1.1961821E0,1.6742297E0],"tree_param":{"num_deleted":"0","num_feature":"50","num_nodes":"9","size_leaf_vector":"1"}},{"base_weights":[-1.4452688E-1,2.0770378E-1,-3.439734E-1,9.918694E-2,3.1464119E-3,-1.2677522E-1,1.5642213E-2],"categories":[],"categories_nodes":[],"categories_segments":[],"categories_sizes":[],"default_left":[0,0,0,0,0,0,0],"id":60,"left_children":[1,3,5,-1,-1,-1,-1],"loss_changes":[7.9887694E-1,1.0239625E-1,2.3962265E-1,0E0,0E0,0E0,0E0],"parents":[2147483647,0,0,1,1,2,2],"right_children":[2,4,6,-1,-1,-1,-1],"split_conditions":[2.00001E0,2.00001E0,8.2E1,9.918694E-2,3.1464119E-3,-1.2677522E-1,1.5642213E-2],"split_indices":[31,38,0,0,0,0,0],"split_type":[0,0,0,0,0,0,0],"sum_hessian":[9.354734E0,3.367027E0,5.9877076E0,1.6574984E0,1.7095287E0,4.9404325E0,1.0472753E0],"tree_param":{"num_deleted":"0","num_feature":"50","num_nodes":"7","size_leaf_vector":"1"}},{"base_weights":[-3.5391383E-2,2.501914E-1,-1.2501515E-1,1.2154112E-1,1.6037304E-2,9.6170045E-2,-9.182147E-2],"categories":[],"categories_nodes":[],"categories_segments":[],"categories_sizes":[],"default_left":[0,0,0,0,0,0,0],"id":61,"left_children":[1,3,-1,-1,5,-1,-1],"loss_changes":[1.3934361E0,2.6175436E-1,0E0,0E0,4.890607E-1,0E0,0E0],"parents":[2147483647,0,0,1,1,4,4],"right_children":[2,4,-1,-1,6,-1,-1],"split_conditions":[2.00001E0,2.00001E0,-1.2501515E-1,1.2154112E-1,2.00001E0,9.6170045E-2,-9.182147E-2],"split_indices":[33,38,0,0,46,0,0],"split_type":[0,0,0,0,0,0,0],"sum_hessian":[1.0838165E1,6.393689E0,4.4444757E0,3.4081886E0,2.9855006E0,1.5370878E0,1.4484127E0],"tree_param":{"num_deleted":"0","num_feature":"50","num_nodes":"7","size_leaf_vector":"1"}},{"base_weights":[-9.781737E-4,2.7461913E-1,-1.4546067E-1,1.02743186E-1,3.7596412E-2,1.7761849E-1,-1.251979E-1,1.0647654E-1,-1.843888E-2],"categories":[],"categories_nodes":[],"categories_segments":[],"categories_sizes":[],"default_left":[0,0,0,0,0,0,0,0,0],"id":62,"left_children":[1,3,5,-1,-1,7,-1,-1,-1],"loss_changes":[5.7702607E-1,7.5871646E-3,9.087845E-1,0E0,0E0,2.3562056E-1,0E0,0E0,0E0],"parents":[2147483647,0,0,1,1,2,2,5,5],"right_children":[2,4,6,-1,-1,8,-1,-1,-1],"split_conditions":[2.00001E0,2.00001E0,2.00001E0,1.02743186E-1,3.7596412E-2,2.00001E0,-1.251979E-1,1.0647654E-1,-1.843888E-2],"split_indices":[39,33,34,0,0,38,0,0,0],"split_type":[0,0,0,0,0,0,0,0,0],"sum_hessian":[1.2488032E1,3.9853506E0,8.502681E0,1.8503964E0,2.1349542E0,4.0437937E0,4.4588876E0,2.0436764E0,2.0001173E0],"tree_param":{"num_deleted":"0","num_feature":"50","num_nodes":"9","size_leaf_vector":"1"}},{"base_weights":[1.4771654E-1,3.7272057E-1,2.3352886E-3,3.762047E-2,1.21995874E-1,-2.724861E-1,1.3003498E-1,-1.38407275E-2,-9.550361E-2,-8.8944755E-2,2.1769477E-1,-8.364978E-2,3.225137E-1,2.169122E-2,3.9645496E-1,3.470396E-2,1.3246909E-1],"categories":[],"categories_nodes":[],"categories_segments":[],"categories_sizes":[],"default_left":[0,0,0,0,0,0,0,0,0,0,0,0,0,0,0,0,0],"id":63,"left_children":[1,3,5,-1,-1,7,9,-1,-1,-1,11,-1,13,-1,15,-1,-1],"loss_changes":[7.4483573E-1,2.4044514E-2,5.567595E-1,0E0,0E0,3.7585467E-2,4.6905315E-1,0E0,0E0,0E0,5.8702624E-1,0E0,1.2581778E-1,0E0,2.7727902E-2,0E0,0E0],"parents":[2147483647,0,0,1,1,2,2,5,5,6,6,10,10,12,12,14,14],"right_children":[2,4,6,-1,-1,8,10,-1,-1,-1,12,-1,14,-1,16,-1,-1],"split_conditions":[2.00001E0,2.00001E0,2.00001E0,3.762047E-2,1.21995874E-1,2.00001E0,2.00001E0,-1.38407275E-2,-9.550361E-2,-8.8944755E-2,2.00001E0,-8.364978E-2,2.00001E0,2.169122E-2,5.1E1,3.470396E-2,1.3246909E-1],"split_indices":[36,5,38,0,0,25,46,0,0,0,39,0,12,0,0,0,0],"split_type":[0,0,0,0,0,0,0,0,0,0,0,0,0,0,0,0,0],"sum_hessian":[2.1796545E1,7.9416485E0,1.3854897E1,1.5246598E0,6.416989E0,4.0357633E0,9.819134E0,1.0178638E0,3.0178995E0,1.2678906E0,8.551243E0,1.2011691E0,7.3500743E0,2.1277711E0,5.222303E0,1.2162606E0,4.0060425E0],"tree_param":{"num_deleted":"0","num_feature":"50","num_nodes":"17","size_leaf_vector":"1"}},{"base_weights":[-1.3856353E-1,1.0751214E-1,-2.6421505E-1,-5.4698225E-2,-1.22358344E-1,8.454951E-2,-8.121007E-2,-1.6982317E-2,6.867682E-2],"categories":[],"categories_nodes":[],"categories_segments":[],"categories_sizes":[],"default_left":[0,0,0,0,0,0,0,0,0],"id":64,"left_children":[1,-1,3,5,-1,7,-1,-1,-1],"loss_changes":[7.4302256E-1,0E0,2.4444157E-1,1.6605586E-1,0E0,8.746919E-2,0E0,0E0,0E0],"parents":[2147483647,0,0,2,2,3,3,5,5],"right_children":[2,-1,4,6,-1,8,-1,-1,-1],"split_conditions":[2.00001E0,1.0751214E-1,2.00001E0,2.00001E0,-1.22358344E-1,6.5E1,-8.121007E-2,-1.6982317E-2,6.867682E-2],"split_indices":[45,0,12,26,0,0,0,0,0],"split_type":[0,0,0,0,0,0,0,0,0],"sum_hessian":[9.383172E0,1.5199237E0,7.8632483E0,3.7599344E0,4.103314E0,2.656176E0,1.1037583E0,1.6504236E0,1.0057523E0],"tree_param":{"num_deleted":"0","num_feature":"50","num_nodes":"9","size_leaf_vector":"1"}},{"base_weights":[-1.3390408E-1,1.8321338E-1,-3.2375148E-1,9.190624E-2,5.574865E-4,1.5238242E-2,-1.2247938E-1],"categories":[],"categories_nodes":[],"categories_segments":[],"categories_sizes":[],"default_left":[0,0,0,0,0,0,0],"id":65,"left_children":[1,3,5,-1,-1,-1,-1],"loss_changes":[6.058465E-1,8.96108E-2,2.1192372E-1,0E0,0E0,0E0,0E0],"parents":[2147483647,0,0,1,1,2,2],"right_children":[2,4,6,-1,-1,-1,-1],"split_conditions":[2.00001E0,2.00001E0,2.00001E0,9.190624E-2,5.574865E-4,1.5238242E-2,-1.2247938E-1],"split_indices":[31,38,15,0,0,0,0],"split_type":[0,0,0,0,0,0,0],"sum_hessian":[8.077994E0,3.0381203E0,5.0398746E0,1.3989668E0,1.6391534E0,1.0012976E0,4.038577E0],"tree_param":{"num_deleted":"0","num_feature":"50","num_nodes":"7","size_leaf_vector":"1"}},{"base_weights":[-3.704196E-2,2.3839116E-1,-1.2034199E-1,1.149933E-1,1.3997513E-2,8.8840544E-2,-8.5046835E-2],"categories":[],"categories_nodes":[],"categories_segments":[],"categories_sizes":[],"default_left":[0,0,0,0,0,0,0],"id":66,"left_children":[1,3,-1,-1,5,-1,-1],"loss_changes":[1.1012487E0,2.0068178E-1,0E0,0E0,3.797489E-1,0E0,0E0],"parents":[2147483647,0,0,1,1,4,4],"right_children":[2,4,-1,-1,6,-1,-1],"split_conditions":[2.00001E0,2.00001E0,-1.2034199E-1,1.149933E-1,2.00001E0,8.8840544E-2,-8.5046835E-2],"split_indices":[33,38,0,0,46,0,0],"split_type":[0,0,0,0,0,0,0],"sum_hessian":[9.027662E0,5.336191E0,3.6914706E0,2.8119476E0,2.5242436E0,1.297877E0,1.2263666E0],"tree_param":{"num_deleted":"0","num_feature":"50","num_nodes":"7","size_leaf_vector":"1"}},{"base_weights":[2.7561313E-3,2.558053E-1,-1.3691874E-1,8.663896E-2,2.3799023E-2,1.6577528E-1,-1.2030771E-1,9.929101E-2,-1.5633542E-2],"categories":[],"categories_nodes":[],"categories_segments":[],"categories_sizes":[],"default_left":[0,0,0,0,0,0,0,0,0],"id":67,"left_children":[1,3,5,-1,-1,7,-1,-1,-1],"loss_changes":[4.4981322E-1,3.4201145E-3,7.2306406E-1,0E0,0E0,1.804614E-1,0E0,0E0,0E0],"parents":[2147483647,0,0,1,1,2,2,5,5],"right_children":[2,4,6,-1,-1,8,-1,-1,-1],"split_conditions":[2.00001E0,2.00001E0,2.00001E0,8.663896E-2,2.3799023E-2,2.00001E0,-1.2030771E-1,9.929101E-2,-1.5633542E-2],"split_indices":[39,16,34,0,0,38,0,0,0],"split_type":[0,0,0,0,0,0,0,0,0],"sum_hessian":[1.0735556E1,3.5224655E0,7.21309E0,2.4314475E0,1.0910178E0,3.5345013E0,3.6785884E0,1.7151408E0,1.8193606E0],"tree_param":{"num_deleted":"0","num_feature":"50","num_nodes":"9","size_leaf_vector":"1"}},{"base_weights":[1.303566E-1,3.4852004E-1,-6.9661494E-3,3.309116E-2,3.832028E-1,2.3054023E-1,-1.3181716E-1,3.2418083E-2,1.2534027E-1,1.1771966E-1,-4.2403057E-2,8.3553E-2,-2.215326E-1,-1.1467681E-1,-7.102611E-2,2.9950617E-2,-5.01911E-2,-1.3081193E-2,2.41166E-2],"categories":[],"categories_nodes":[],"categories_segments":[],"categories_sizes":[],"default_left":[0,0,0,0,0,0,0,0,0,0,0,0,0,0,0,0,0,0,0],"id":68,"left_children":[1,3,5,-1,7,9,11,-1,-1,-1,-1,-1,13,-1,15,17,-1,-1,-1],"loss_changes":[5.9707904E-1,2.12425E-2,4.206749E-1,0E0,1.488179E-2,3.5032862E-1,4.0269852E-1,0E0,0E0,0E0,0E0,0E0,1.7019424E-1,0E0,5.7908878E-2,1.6504709E-2,0E0,0E0,0E0],"parents":[2147483647,0,0,1,1,2,2,4,4,5,5,6,6,12,12,14,14,15,15],"right_children":[2,4,6,-1,8,10,12,-1,-1,-1,-1,-1,14,-1,16,18,-1,-1,-1],"split_conditions":[2.00001E0,2.00001E0,2.00001E0,3.309116E-2,2.00001E0,6.4E1,2.00001E0,3.2418083E-2,1.2534027E-1,1.1771966E-1,-4.2403057E-2,8.3553E-2,2.00001E0,-1.1467681E-1,2.00001E0,2.00001E0,-5.01911E-2,-1.3081193E-2,2.41166E-2],"split_indices":[36,5,43,0,15,0,44,0,0,0,0,0,49,0,16,33,0,0,0],"split_type":[0,0,0,0,0,0,0,0,0,0,0,0,0,0,0,0,0,0,0],"sum_hessian":[1.8848965E1,6.6871634E0,1.21618E1,1.3811558E0,5.306008E0,3.8987033E0,8.263098E0,1.0532558E0,4.252752E0,2.6779761E0,1.2207271E0,1.1049714E0,7.158126E0,2.716946E0,4.44118E0,2.50394E0,1.93724E0,1.073676E0,1.4302641E0],"tree_param":{"num_deleted":"0","num_feature":"50","num_nodes":"19","size_leaf_vector":"1"}},{"base_weights":[-1.1103157E-1,1.0335349E-1,-2.368177E-1,-3.7388343E-2,-1.1700839E-1,1.002481E-1,-7.7854134E-2,6.43857E-2,-1.02665005E-2],"categories":[],"categories_nodes":[],"categories_segments":[],"categories_sizes":[],"default_left":[0,0,0,0,0,0,0,0,0],"id":69,"left_children":[1,-1,3,5,-1,7,-1,-1,-1],"loss_changes":[6.1457336E-1,0E0,2.2623429E-1,1.6451812E-1,0E0,6.1456397E-2,0E0,0E0,0E0],"parents":[2147483647,0,0,2,2,3,3,5,5],"right_children":[2,-1,4,6,-1,8,-1,-1,-1],"split_conditions":[2.00001E0,1.0335349E-1,2.00001E0,6.6E1,-1.1700839E-1,2.00001E0,-7.7854134E-2,6.43857E-2,-1.02665005E-2],"split_indices":[45,0,12,0,0,43,0,0,0],"split_type":[0,0,0,0,0,0,0,0,0],"sum_hessian":[8.301526E0,1.4200066E0,6.88152E0,3.5302837E0,3.351236E0,2.5184522E0,1.0118314E0,1.0388434E0,1.4796089E0],"tree_param":{"num_deleted":"0","num_feature":"50","num_nodes":"9","size_leaf_vector":"1"}},{"base_weights":[-1.2348706E-1,1.6670983E-1,-3.0435157E-1,8.532254E-2,-6.7414374E-5,-1.1694522E-1,8.956711E-3],"categories":[],"categories_nodes":[],"categories_segments":[],"categories_sizes":[],"default_left":[0,0,0,0,0,0,0],"id":70,"left_children":[1,3,5,-1,-1,-1,-1],"loss_changes":[4.7488314E-1,7.372071E-2,1.6394427E-1,0E0,0E0,0E0,0E0],"parents":[2147483647,0,0,1,1,2,2],"right_children":[2,4,6,-1,-1,-1,-1],"split_conditions":[2.00001E0,2.00001E0,7.9E1,8.532254E-2,-6.7414374E-5,-1.1694522E-1,8.956711E-3],"split_indices":[31,38,0,0,0,0,0],"split_type":[0,0,0,0,0,0,0],"sum_hessian":[7.081054E0,2.7488263E0,4.3322277E0,1.1994392E0,1.5493871E0,3.3174675E0,1.0147603E0],"tree_param":{"num_deleted":"0","num_feature":"50","num_nodes":"7","size_leaf_vector":"1"}},{"base_weights":[-4.304687E-2,2.2013947E-1,-1.15508825E-1,1.08337045E-1,2.2738199E-3,8.112323E-2,-8.017058E-2],"categories":[],"categories_nodes":[],"categories_segments":[],"categories_sizes":[],"default_left":[0,0,0,0,0,0,0],"id":71,"left_children":[1,3,-1,-1,5,-1,-1],"loss_changes":[8.5855305E-1,1.6794682E-1,0E0,0E0,3.009844E-1,0E0,0E0],"parents":[2147483647,0,0,1,1,4,4],"right_children":[2,4,-1,-1,6,-1,-1],"split_conditions":[2.00001E0,2.00001E0,-1.15508825E-1,1.08337045E-1,2.00001E0,8.112323E-2,-8.017058E-2],"split_indices":[33,38,0,0,46,0,0],"split_type":[0,0,0,0,0,0,0],"sum_hessian":[7.5972085E0,4.4945397E0,3.1026688E0,2.3295217E0,2.165018E0,1.0835947E0,1.0814235E0],"tree_param":{"num_deleted":"0","num_feature":"50","num_nodes":"7","size_leaf_vector":"1"}},{"base_weights":[3.5657838E-3,2.3772371E-1,-1.3179345E-1,9.010683E-2,2.9852508E-2,1.483883E-1,-1.1532732E-1,9.244299E-2,-1.5676938E-2],"categories":[],"categories_nodes":[],"categories_segments":[],"categories_sizes":[],"default_left":[0,0,0,0,0,0,0,0,0],"id":72,"left_children":[1,3,5,-1,-1,7,-1,-1,-1],"loss_changes":[3.6035362E-1,6.1179698E-3,5.6819975E-1,0E0,0E0,1.489836E-1,0E0,0E0,0E0],"parents":[2147483647,0,0,1,1,2,2,5,5],"right_children":[2,4,6,-1,-1,8,-1,-1,-1],"split_conditions":[2.00001E0,2.00001E0,2.00001E0,9.010683E-2,2.9852508E-2,2.00001E0,-1.1532732E-1,9.244299E-2,-1.5676938E-2],"split_indices":[39,33,34,0,0,38,0,0,0],"split_type":[0,0,0,0,0,0,0,0,0],"sum_hessian":[9.3807745E0,3.159285E0,6.2214894E0,1.3668112E0,1.7924739E0,3.1455395E0,3.07595E0,1.4529352E0,1.6926043E0],"tree_param":{"num_deleted":"0","num_feature":"50","num_nodes":"9","size_leaf_vector":"1"}},{"base_weights":[1.1835422E-1,3.2843593E-1,-1.0268931E-2,3.009255E-2,1.0896445E-1,-2.3781095E-1,9.8410204E-2,-2.5963685E-2,-9.394467E-2,-7.995449E-2,1.8094894E-1,2.7360186E-1,-3.0659625E-2,1.1198655E-1,8.321004E-2,-8.781378E-2,6.785959E-2,5.385838E-2,-1.6917521E-2],"categories":[],"categories_nodes":[],"categories_segments":[],"categories_sizes":[],"default_left":[0,0,0,0,0,0,0,0,0,0,0,0,0,0,0,0,0,0,0],"id":73,"left_children":[1,3,5,-1,-1,7,9,-1,-1,-1,11,13,15,-1,17,-1,-1,-1,-1],"loss_changes":[4.7933668E-1,1.6878128E-2,3.1755498E-1,0E0,0E0,2.0050451E-2,3.1200224E-1,0E0,0E0,0E0,1.6009358E-1,7.29872E-2,2.8533867E-1,0E0,5.2759152E-2,0E0,0E0,0E0,0E0],"parents":[2147483647,0,0,1,1,2,2,5,5,6,6,10,10,11,11,12,12,14,14],"right_children":[2,4,6,-1,-1,8,10,-1,-1,-1,12,14,16,-1,18,-1,-1,-1,-1],"split_conditions":[2.00001E0,2.00001E0,2.00001E0,3.009255E-2,1.0896445E-1,2.00001E0,2.00001E0,-2.5963685E-2,-9.394467E-2,-7.995449E-2,6.4E1,2.00001E0,2.00001E0,1.1198655E-1,2.00001E0,-8.781378E-2,6.785959E-2,5.385838E-2,-1.6917521E-2],"split_indices":[36,5,38,0,0,16,46,0,0,0,0,43,47,0,47,0,0,0,0],"split_type":[0,0,0,0,0,0,0,0,0,0,0,0,0,0,0,0,0,0,0],"sum_hessian":[1.6614355E1,5.719369E0,1.0894986E1,1.2704178E0,4.4489512E0,3.1375952E0,7.7573915E0,1.7575363E0,1.3800589E0,1.0197672E0,6.737624E0,4.48215E0,2.2554739E0,2.311334E0,2.1708164E0,1.047352E0,1.208122E0,1.1153104E0,1.0555059E0],"tree_param":{"num_deleted":"0","num_feature":"50","num_nodes":"19","size_leaf_vector":"1"}},{"base_weights":[-8.965465E-2,9.767815E-2,-2.1091285E-1,-1.9275978E-2,-1.1184086E-1,5.7684854E-2,-1.5114927E-1,1.9254215E-2,-8.401528E-2],"categories":[],"categories_nodes":[],"categories_segments":[],"categories_sizes":[],"default_left":[0,0,0,0,0,0,0,0,0],"id":74,"left_children":[1,-1,3,5,-1,-1,7,-1,-1],"loss_changes":[4.9200165E-1,0E0,2.1352085E-1,1.4937073E-1,0E0,0E0,1.072465E-1,0E0,0E0],"parents":[2147483647,0,0,2,2,3,3,6,6],"right_children":[2,-1,4,6,-1,-1,8,-1,-1],"split_conditions":[2.00001E0,9.767815E-2,2.00001E0,2.00001E0,-1.1184086E-1,5.7684854E-2,6.1E1,1.9254215E-2,-8.401528E-2],"split_indices":[45,0,12,43,0,0,0,0,0],"split_type":[0,0,0,0,0,0,0,0,0],"sum_hessian":[7.4073577E0,1.2933061E0,6.114052E0,3.312251E0,2.8018007E0,1.0959601E0,2.216291E0,1.0179323E0,1.1983587E0],"tree_param":{"num_deleted":"0","num_feature":"50","num_nodes":"9","size_leaf_vector":"1"}},{"base_weights":[-1.1605289E-1,1.5074892E-1,-2.8714335E-1,7.875983E-2,-7.04327E-4,-1.11572124E-1,4.1829846E-3],"categories":[],"categories_nodes":[],"categories_segments":[],"categories_sizes":[],"default_left":[0,0,0,0,0,0,0],"id":75,"left_children":[1,3,5,-1,-1,-1,-1],"loss_changes":[3.7453663E-1,6.036119E-2,1.268118E-1,0E0,0E0,0E0,0E0],"parents":[2147483647,0,0,1,1,2,2],"right_children":[2,4,6,-1,-1,-1,-1],"split_conditions":[2.00001E0,2.00001E0,7.8E1,7.875983E-2,-7.04327E-4,-1.11572124E-1,4.1829846E-3],"split_indices":[31,38,0,0,0,0,0],"split_type":[0,0,0,0,0,0,0],"sum_hessian":[6.2567363E0,2.4910452E0,3.765691E0,1.0266316E0,1.4644136E0,2.7548995E0,1.0107915E0],"tree_param":{"num_deleted":"0","num_feature":"50","num_nodes":"7","size_leaf_vector":"1"}},{"base_weights":[-4.571462E-2,2.073268E-1,-1.1066776E-1,1.01968534E-1,-4.0065873E-4],"categories":[],"categories_nodes":[],"categories_segments":[],"categories_sizes":[],"default_left":[0,0,0,0,0],"id":76,"left_children":[1,3,-1,-1,-1],"loss_changes":[6.8740976E-1,1.3406599E-1,0E0,0E0,0E0],"parents":[2147483647,0,0,1,1],"right_children":[2,4,-1,-1,-1],"split_conditions":[2.00001E0,2.00001E0,-1.1066776E-1,1.01968534E-1,-4.0065873E-4],"split_indices":[33,38,0,0,0],"split_type":[0,0,0,0,0],"sum_hessian":[6.4706273E0,3.8301647E0,2.6404629E0,1.9575567E0,1.8726078E0],"tree_param":{"num_deleted":"0","num_feature":"50","num_nodes":"5","size_leaf_vector":"1"}},{"base_weights":[7.753212E-3,2.2649486E-1,-1.2597962E-1,8.449515E-2,2.92787E-2,1.3374603E-1,-1.1019581E-1,8.600491E-2,-1.5261382E-2],"categories":[],"categories_nodes":[],"categories_segments":[],"categories_sizes":[],"default_left":[0,0,0,0,0,0,0,0,0],"id":77,"left_children":[1,3,5,-1,-1,7,-1,-1,-1],"loss_changes":[3.0096468E-1,1.7420948E-4,4.5167783E-1,0E0,0E0,1.22618735E-1,0E0,0E0,0E0],"parents":[2147483647,0,0,1,1,2,2,5,5],"right_children":[2,4,6,-1,-1,8,-1,-1,-1],"split_conditions":[2.00001E0,2.00001E0,2.00001E0,8.449515E-2,2.92787E-2,2.00001E0,-1.1019581E-1,8.600491E-2,-1.5261382E-2],"split_indices":[39,33,34,0,0,38,0,0,0],"split_type":[0,0,0,0,0,0,0,0,0],"sum_hessian":[8.312943E0,2.8908517E0,5.422092E0,1.1946286E0,1.696223E0,2.8262975E0,2.5957942E0,1.2434081E0,1.5828896E0],"tree_param":{"num_deleted":"0","num_feature":"50","num_nodes":"9","size_leaf_vector":"1"}},{"base_weights":[1.0356219E-1,3.0552477E-1,-1.5882896E-2,3.915747E-2,1.1266314E-1,-2.194731E-1,8.229013E-2,-2.1339882E-2,-8.855945E-2,1.9390872E-1,-1.0806743E-1,1.06510326E-1,-3.6671353E-3,4.8585393E-2,-8.792126E-2,2.7225163E-2,-3.2641087E-2],"categories":[],"categories_nodes":[],"categories_segments":[],"categories_sizes":[],"default_left":[0,0,0,0,0,0,0,0,0,0,0,0,0,0,0,0,0],"id":78,"left_children":[1,3,5,-1,-1,7,9,-1,-1,11,13,-1,15,-1,-1,-1,-1],"loss_changes":[3.8672614E-1,2.3672938E-2,2.3587252E-1,0E0,0E0,2.1890044E-2,1.9262618E-1,0E0,0E0,1.748331E-1,2.2872643E-1,0E0,4.400544E-2,0E0,0E0,0E0,0E0],"parents":[2147483647,0,0,1,1,2,2,5,5,6,6,9,9,10,10,12,12],"right_children":[2,4,6,-1,-1,8,10,-1,-1,12,14,-1,16,-1,-1,-1,-1],"split_conditions":[2.00001E0,5.8E1,2.00001E0,3.915747E-2,1.1266314E-1,2.00001E0,6.4E1,-2.1339882E-2,-8.855945E-2,2.00001E0,2.00001E0,1.06510326E-1,2.00001E0,4.8585393E-2,-8.792126E-2,2.7225163E-2,-3.2641087E-2],"split_indices":[36,0,38,0,0,16,0,0,0,43,34,0,33,0,0,0,0],"split_type":[0,0,0,0,0,0,0,0,0,0,0,0,0,0,0,0,0],"sum_hessian":[1.4829981E1,4.93233E0,9.897651E0,2.2279952E0,2.704335E0,2.818045E0,7.079606E0,1.6078112E0,1.2102336E0,4.4510317E0,2.6285744E0,2.0126977E0,2.4383337E0,1.1193904E0,1.5091841E0,1.3567435E0,1.0815904E0],"tree_param":{"num_deleted":"0","num_feature":"50","num_nodes":"17","size_leaf_vector":"1"}},{"base_weights":[-6.8720706E-2,9.390358E-2,-1.882139E-1,-6.2206294E-3,-1.0650372E-1,5.656508E-2,-4.1797988E-2],"categories":[],"categories_nodes":[],"categories_segments":[],"categories_sizes":[],"default_left":[0,0,0,0,0,0,0],"id":79,"left_children":[1,-1,3,5,-1,-1,-1],"loss_changes":[4.0932372E-1,0E0,1.9435093E-1,1.329351E-1,0E0,0E0,0E0],"parents":[2147483647,0,0,2,2,3,3],"right_children":[2,-1,4,6,-1,-1,-1],"split_conditions":[2.00001E0,9.390358E-2,2.00001E0,2.00001E0,-1.0650372E-1,5.656508E-2,-4.1797988E-2],"split_indices":[45,0,12,43,0,0,0],"split_type":[0,0,0,0,0,0,0],"sum_hessian":[6.682008E0,1.2069125E0,5.4750953E0,3.114342E0,2.3607533E0,1.0952077E0,2.0191343E0],"tree_param":{"num_deleted":"0","num_feature":"50","num_nodes":"7","size_leaf_vector":"1"}},{"base_weights":[-1.1160163E-1,1.3406475E-1,-2.7262133E-1,5.37891E-2,6.0426416E-3,-1.0586717E-1,-3.0177403E-3],"categories":[],"categories_nodes":[],"categories_segments":[],"categories_sizes":[],"default_left":[0,0,0,0,0,0,0],"id":80,"left_children":[1,3,5,-1,-1,-1,-1],"loss_changes":[2.9910392E-1,1.3384573E-2,8.789921E-2,0E0,0E0,0E0,0E0],"parents":[2147483647,0,0,1,1,2,2],"right_children":[2,4,6,-1,-1,-1,-1],"split_conditions":[2.00001E0,2.00001E0,7.7E1,5.37891E-2,6.0426416E-3,-1.0586717E-1,-3.0177403E-3],"split_indices":[31,1,0,0,0,0,0],"split_type":[0,0,0,0,0,0,0],"sum_hessian":[5.637365E0,2.2982879E0,3.3390768E0,1.2343485E0,1.0639393E0,2.2938006E0,1.045276E0],"tree_param":{"num_deleted":"0","num_feature":"50","num_nodes":"7","size_leaf_vector":"1"}},{"base_weights":[-4.7533456E-2,1.8912429E-1,-1.0596963E-1,9.574969E-2,-1.0979095E-3],"categories":[],"categories_nodes":[],"categories_segments":[],"categories_sizes":[],"default_left":[0,0,0,0,0],"id":81,"left_children":[1,3,-1,-1,-1],"loss_changes":[5.524768E-1,1.1235735E-1,0E0,0E0,0E0],"parents":[2147483647,0,0,1,1],"right_children":[2,4,-1,-1,-1],"split_conditions":[2.00001E0,2.00001E0,-1.0596963E-1,9.574969E-2,-1.0979095E-3],"split_indices":[33,38,0,0,0],"split_type":[0,0,0,0,0],"sum_hessian":[5.7131896E0,3.435174E0,2.2780156E0,1.6599222E0,1.7752519E0],"tree_param":{"num_deleted":"0","num_feature":"50","num_nodes":"5","size_leaf_vector":"1"}},{"base_weights":[1.1379315E-2,6.471972E-2,-1.1940754E-1,1.2416294E-1,-1.054415E-1,8.000444E-2,-1.3100418E-2],"categories":[],"categories_nodes":[],"categories_segments":[],"categories_sizes":[],"default_left":[0,0,0,0,0,0,0],"id":82,"left_children":[1,-1,3,5,-1,-1,-1],"loss_changes":[2.5240946E-1,0E0,3.723033E-1,9.7177856E-2,0E0,0E0,0E0],"parents":[2147483647,0,0,2,2,3,3],"right_children":[2,-1,4,6,-1,-1,-1],"split_conditions":[2.00001E0,6.471972E-2,2.00001E0,2.00001E0,-1.054415E-1,8.000444E-2,-1.3100418E-2],"split_indices":[39,0,34,38,0,0,0],"split_type":[0,0,0,0,0,0,0],"sum_hessian":[7.4802628E0,2.665676E0,4.8145866E0,2.5759141E0,2.2386723E0,1.0744911E0,1.5014231E0],"tree_param":{"num_deleted":"0","num_feature":"50","num_nodes":"7","size_leaf_vector":"1"}},{"base_weights":[9.143217E-2,2.859268E-1,-1.898687E-2,2.0832207E-2,9.835269E-2,-2.0350188E-1,6.9666885E-2,-1.728355E-2,-8.3959915E-2,1.793988E-1,-1.0898861E-1,1.0160492E-1,-7.97906E-3,4.2676084E-2,-8.17185E-2,2.6693063E-2,-3.1477936E-2],"categories":[],"categories_nodes":[],"categories_segments":[],"categories_sizes":[],"default_left":[0,0,0,0,0,0,0,0,0,0,0,0,0,0,0,0,0],"id":83,"left_children":[1,3,5,-1,-1,7,9,-1,-1,11,13,-1,15,-1,-1,-1,-1],"loss_changes":[3.1702134E-1,2.5476247E-2,1.8090591E-1,0E0,0E0,2.3569927E-2,1.6912505E-1,0E0,0E0,1.550518E-1,1.8347308E-1,0E0,4.0565148E-2,0E0,0E0,0E0,0E0],"parents":[2147483647,0,0,1,1,2,2,5,5,6,6,9,9,10,10,12,12],"right_children":[2,4,6,-1,-1,8,10,-1,-1,12,14,-1,16,-1,-1,-1,-1],"split_conditions":[2.00001E0,2.00001E0,2.00001E0,2.0832207E-2,9.835269E-2,2.00001E0,6.4E1,-1.728355E-2,-8.3959915E-2,2.00001E0,2.00001E0,1.0160492E-1,2.00001E0,4.2676084E-2,-8.17185E-2,2.6693063E-2,-3.1477936E-2],"split_indices":[36,27,38,0,0,16,0,0,0,43,34,0,26,0,0,0,0],"split_type":[0,0,0,0,0,0,0,0,0,0,0,0,0,0,0,0,0],"sum_hessian":[1.3508931E1,4.31642E0,9.192512E0,1.1311116E0,3.1853082E0,2.5628934E0,6.6296177E0,1.4833908E0,1.0795027E0,4.104459E0,2.5251586E0,1.7820796E0,2.3223794E0,1.0461384E0,1.4790202E0,1.2022442E0,1.1201352E0],"tree_param":{"num_deleted":"0","num_feature":"50","num_nodes":"17","size_leaf_vector":"1"}},{"base_weights":[-5.100419E-2,9.0064734E-2,-1.6712551E-1,4.9892776E-3,-1.013866E-1,5.4871283E-2,-3.796964E-2],"categories":[],"categories_nodes":[],"categories_segments":[],"categories_sizes":[],"default_left":[0,0,0,0,0,0,0],"id":84,"left_children":[1,-1,3,5,-1,-1,-1],"loss_changes":[3.4063062E-1,0E0,1.7794232E-1,1.16105415E-1,0E0,0E0,0E0],"parents":[2147483647,0,0,2,2,3,3],"right_children":[2,-1,4,6,-1,-1,-1],"split_conditions":[2.00001E0,9.0064734E-2,2.00001E0,2.00001E0,-1.013866E-1,5.4871283E-2,-3.796964E-2],"split_indices":[45,0,12,43,0,0,0],"split_type":[0,0,0,0,0,0,0],"sum_hessian":[6.121813E0,1.1271816E0,4.9946313E0,2.9715369E0,2.0230944E0,1.0972648E0,1.8742721E0],"tree_param":{"num_deleted":"0","num_feature":"50","num_nodes":"7","size_leaf_vector":"1"}},{"base_weights":[-1.07771896E-1,1.1802046E-1,-2.5931743E-1,4.3692064E-2,1.0731489E-2,-1.0105043E-1,-4.668284E-3],"categories":[],"categories_nodes":[],"categories_segments":[],"categories_sizes":[],"default_left":[0,0,0,0,0,0,0],"id":85,"left_children":[1,3,5,-1,-1,-1,-1],"loss_changes":[2.4126378E-1,1.9681938E-3,7.0276916E-2,0E0,0E0,0E0,0E0],"parents":[2147483647,0,0,1,1,2,2],"right_children":[2,4,6,-1,-1,-1,-1],"split_conditions":[2.00001E0,2.00001E0,7.7E1,4.3692064E-2,1.0731489E-2,-1.0105043E-1,-4.668284E-3],"split_indices":[31,47,0,0,0,0,0],"split_type":[0,0,0,0,0,0,0],"sum_hessian":[5.156413E0,2.1597524E0,2.9966607E0,1.03984E0,1.1199124E0,1.9839064E0,1.0127544E0],"tree_param":{"num_deleted":"0","num_feature":"50","num_nodes":"7","size_leaf_vector":"1"}},{"base_weights":[-4.9167056E-2,1.7126179E-1,-1.0122426E-1,8.981504E-2,-2.2390962E-3],"categories":[],"categories_nodes":[],"categories_segments":[],"categories_sizes":[],"default_left":[0,0,0,0,0],"id":86,"left_children":[1,3,-1,-1,-1],"loss_changes":[4.4512212E-1,9.6525505E-2,0E0,0E0,0E0],"parents":[2147483647,0,0,1,1],"right_children":[2,4,-1,-1,-1],"split_conditions":[2.00001E0,2.00001E0,-1.0122426E-1,8.981504E-2,-2.2390962E-3],"split_indices":[33,38,0,0,0],"split_type":[0,0,0,0,0],"sum_hessian":[5.0961323E0,3.1177623E0,1.9783698E0,1.422746E0,1.6950165E0],"tree_param":{"num_deleted":"0","num_feature":"50","num_nodes":"5","size_leaf_vector":"1"}},{"base_weights":[1.253254E-2,-8.0275774E-2,9.971774E-2,1.02178626E-1,-6.776574E-2,3.500707E-2,-8.9437366E-2],"categories":[],"categories_nodes":[],"categories_segments":[],"categories_sizes":[],"default_left":[0,0,0,0,0,0,0],"id":87,"left_children":[1,-1,3,-1,5,-1,-1],"loss_changes":[2.1712181E-1,0E0,2.9238522E-1,0E0,2.3753926E-1,0E0,0E0],"parents":[2147483647,0,0,2,2,4,4],"right_children":[2,-1,4,-1,6,-1,-1],"split_conditions":[2.00001E0,-8.0275774E-2,2.00001E0,1.02178626E-1,2.00001E0,3.500707E-2,-8.9437366E-2],"split_indices":[36,0,39,0,34,0,0],"split_type":[0,0,0,0,0,0,0],"sum_hessian":[6.797777E0,1.122409E0,5.6753683E0,1.9037526E0,3.7716157E0,2.3685112E0,1.4031044E0],"tree_param":{"num_deleted":"0","num_feature":"50","num_nodes":"7","size_leaf_vector":"1"}},{"base_weights":[8.1553206E-2,2.6684928E-1,-2.0155774E-2,2.8701855E-2,1.0215873E-1,-5.734347E-2,6.207303E-2,1.6962029E-1,-1.0566175E-1,9.722353E-2,-8.633097E-3,-7.713936E-2,3.1734154E-2,2.4344957E-2,-2.9401725E-2],"categories":[],"categories_nodes":[],"categories_segments":[],"categories_sizes":[],"default_left":[0,0,0,0,0,0,0,0,0,0,0,0,0,0,0],"id":88,"left_children":[1,3,5,-1,-1,-1,7,9,11,-1,13,-1,-1,-1,-1],"loss_changes":[2.5895485E-1,2.8443873E-2,1.4707616E-1,0E0,0E0,0E0,1.4868279E-1,1.349696E-1,1.3763037E-1,0E0,3.3651732E-2,0E0,0E0,0E0,0E0],"parents":[2147483647,0,0,1,1,2,2,6,6,7,7,8,8,10,10],"right_children":[2,4,6,-1,-1,-1,8,10,12,-1,14,-1,-1,-1,-1],"split_conditions":[2.00001E0,5.8E1,2.00001E0,2.8701855E-2,1.0215873E-1,-5.734347E-2,6.4E1,2.00001E0,2.00001E0,9.722353E-2,2.00001E0,-7.713936E-2,3.1734154E-2,2.4344957E-2,-2.9401725E-2],"split_indices":[36,0,38,0,0,0,0,43,1,0,26,0,0,0,0],"split_type":[0,0,0,0,0,0,0,0,0,0,0,0,0,0,0],"sum_hessian":[1.2454984E1,3.8384113E0,8.616572E0,1.8466597E0,1.9917517E0,2.3679774E0,6.2485948E0,3.8005428E0,2.448052E0,1.5978847E0,2.2026582E0,1.3004066E0,1.1476455E0,1.1447043E0,1.0579538E0],"tree_param":{"num_deleted":"0","num_feature":"50","num_nodes":"15","size_leaf_vector":"1"}},{"base_weights":[-3.4793414E-2,8.683584E-2,-1.4813638E-1,1.4311258E-2,-9.639105E-2,5.3153213E-2,-3.4551922E-2],"categories":[],"categories_nodes":[],"categories_segments":[],"categories_sizes":[],"default_left":[0,0,0,0,0,0,0],"id":89,"left_children":[1,-1,3,5,-1,-1,-1],"loss_changes":[2.8772724E-1,0E0,1.6207811E-1,1.01509616E-1,0E0,0E0,0E0],"parents":[2147483647,0,0,2,2,3,3],"right_children":[2,-1,4,6,-1,-1,-1],"split_conditions":[2.00001E0,8.683584E-2,2.00001E0,2.00001E0,-9.639105E-2,5.3153213E-2,-3.4551922E-2],"split_indices":[45,0,12,43,0,0,0],"split_type":[0,0,0,0,0,0,0],"sum_hessian":[5.662365E0,1.0641931E0,4.5981717E0,2.845846E0,1.7523257E0,1.0973113E0,1.7485348E0],"tree_param":{"num_deleted":"0","num_feature":"50","num_nodes":"7","size_leaf_vector":"1"}},{"base_weights":[-1.0373048E-1,3.1764258E-2,-2.4651812E-1,-9.581763E-2,-7.682926E-3],"categories":[],"categories_nodes":[],"categories_segments":[],"categories_sizes":[],"default_left":[0,0,0,0,0],"id":90,"left_children":[1,-1,3,-1,-1],"loss_changes":[1.9799164E-1,0E0,5.1650688E-2,0E0,0E0],"parents":[2147483647,0,0,2,2],"right_children":[2,-1,4,-1,-1],"split_conditions":[2.00001E0,3.1764258E-2,7.6E1,-9.581763E-2,-7.682926E-3],"split_indices":[31,0,0,0,0],"split_type":[0,0,0,0,0],"sum_hessian":[4.7430882E0,2.02657E0,2.7165184E0,1.7074476E0,1.0090706E0],"tree_param":{"num_deleted":"0","num_feature":"50","num_nodes":"5","size_leaf_vector":"1"}},{"base_weights":[-4.907145E-2,1.5842041E-1,-9.6676625E-2,8.391387E-2,-1.5151162E-3],"categories":[],"categories_nodes":[],"categories_segments":[],"categories_sizes":[],"default_left":[0,0,0,0,0],"id":91,"left_children":[1,3,-1,-1,-1],"loss_changes":[3.6731243E-1,7.757884E-2,0E0,0E0,0E0],"parents":[2147483647,0,0,1,1],"right_children":[2,4,-1,-1,-1],"split_conditions":[2.00001E0,2.00001E0,-9.6676625E-2,8.391387E-2,-1.5151162E-3],"split_indices":[33,38,0,0,0],"split_type":[0,0,0,0,0],"sum_hessian":[4.5794168E0,2.8413885E0,1.7380284E0,1.2229174E0,1.6184711E0],"tree_param":{"num_deleted":"0","num_feature":"50","num_nodes":"5","size_leaf_vector":"1"}},{"base_weights":[8.325316E-3,5.871563E-2,-1.1331529E-1,2.9227355E-2,-9.669524E-2],"categories":[],"categories_nodes":[],"categories_segments":[],"categories_sizes":[],"default_left":[0,0,0,0,0],"id":92,"left_children":[1,-1,3,-1,-1],"loss_changes":[1.8588996E-1,0E0,2.5111604E-1,0E0,0E0],"parents":[2147483647,0,0,2,2],"right_children":[2,-1,4,-1,-1],"split_conditions":[2.00001E0,5.871563E-2,2.00001E0,2.9227355E-2,-9.669524E-2],"split_indices":[39,0,34,0,0],"split_type":[0,0,0,0,0],"sum_hessian":[6.182036E0,2.1936367E0,3.988399E0,2.2517684E0,1.7366307E0],"tree_param":{"num_deleted":"0","num_feature":"50","num_nodes":"5","size_leaf_vector":"1"}},{"base_weights":[7.52449E-2,2.4801454E-1,-1.5827235E-2,2.5389144E-2,9.601542E-2,-5.2630227E-2,6.0372964E-2,-3.4658227E-2,1.5881526E-1,8.834243E-2,2.600229E-2,2.9285075E-2,-1.6370479E-2],"categories":[],"categories_nodes":[],"categories_segments":[],"categories_sizes":[],"default_left":[0,0,0,0,0,0,0,0,0,0,0,0,0],"id":93,"left_children":[1,3,5,-1,-1,-1,7,-1,9,-1,11,-1,-1],"loss_changes":[2.0118514E-1,2.4552047E-2,1.2186682E-1,0E0,0E0,0E0,1.3846472E-1,0E0,8.00649E-2,0E0,2.5851E-2,0E0,0E0],"parents":[2147483647,0,0,1,1,2,2,6,6,8,8,10,10],"right_children":[2,4,6,-1,-1,-1,8,-1,10,-1,12,-1,-1],"split_conditions":[2.00001E0,5.8E1,2.00001E0,2.5389144E-2,9.601542E-2,-5.2630227E-2,2.00001E0,-3.4658227E-2,2.00001E0,8.834243E-2,2.00001E0,2.9285075E-2,-1.6370479E-2],"split_indices":[36,0,38,0,0,0,12,0,43,0,47,0,0],"split_type":[0,0,0,0,0,0,0,0,0,0,0,0,0],"sum_hessian":[1.1536765E1,3.3873918E0,8.149373E0,1.7019916E0,1.6854002E0,2.212614E0,5.936759E0,2.068009E0,3.86875E0,1.3117118E0,2.5570385E0,1.241748E0,1.3152905E0],"tree_param":{"num_deleted":"0","num_feature":"50","num_nodes":"13","size_leaf_vector":"1"}},{"base_weights":[-2.1304043E-2,8.3568685E-2,-1.3104805E-1,2.146386E-2,-9.14732E-2,5.229673E-2,-3.2150835E-2],"categories":[],"categories_nodes":[],"categories_segments":[],"categories_sizes":[],"default_left":[0,0,0,0,0,0,0],"id":94,"left_children":[1,-1,3,5,-1,-1,-1],"loss_changes":[2.4287333E-1,0E0,1.4630829E-1,9.226162E-2,0E0,0E0,0E0],"parents":[2147483647,0,0,2,2,3,3],"right_children":[2,-1,4,6,-1,-1,-1],"split_conditions":[2.00001E0,8.3568685E-2,2.00001E0,2.00001E0,-9.14732E-2,5.229673E-2,-3.2150835E-2],"split_indices":[45,0,12,47,0,0,0],"split_type":[0,0,0,0,0,0,0],"sum_hessian":[5.270965E0,1.000069E0,4.2708964E0,2.7420888E0,1.5288075E0,1.0907413E0,1.6513475E0],"tree_param":{"num_deleted":"0","num_feature":"50","num_nodes":"7","size_leaf_vector":"1"}},{"base_weights":[-1.0124862E-1,2.7731923E-2,-2.3512733E-1,-8.991878E-2,-1.2603463E-2],"categories":[],"categories_nodes":[],"categories_segments":[],"categories_sizes":[],"default_left":[0,0,0,0,0],"id":95,"left_children":[1,-1,3,-1,-1],"loss_changes":[1.6233774E-1,0E0,3.0927181E-2,0E0,0E0],"parents":[2147483647,0,0,2,2],"right_children":[2,-1,4,-1,-1],"split_conditions":[2.00001E0,2.7731923E-2,7.4E1,-8.991878E-2,-1.2603463E-2],"split_indices":[31,0,0,0,0],"split_type":[0,0,0,0,0],"sum_hessian":[4.4222364E0,1.9339008E0,2.4883356E0,1.4509029E0,1.0374327E0],"tree_param":{"num_deleted":"0","num_feature":"50","num_nodes":"5","size_leaf_vector":"1"}},{"base_weights":[-4.988637E-2,1.4358771E-1,-9.2183605E-2,7.848335E-2,-2.191148E-3],"categories":[],"categories_nodes":[],"categories_segments":[],"categories_sizes":[],"default_left":[0,0,0,0,0],"id":96,"left_children":[1,3,-1,-1,-1],"loss_changes":[3.0139172E-1,6.657126E-2,0E0,0E0,0E0],"parents":[2147483647,0,0,1,1],"right_children":[2,4,-1,-1,-1],"split_conditions":[2.00001E0,2.00001E0,-9.2183605E-2,7.848335E-2,-2.191148E-3],"split_indices":[33,38,0,0,0],"split_type":[0,0,0,0,0],"sum_hessian":[4.166201E0,2.6308298E0,1.5353714E0,1.064464E0,1.5663658E0],"tree_param":{"num_deleted":"0","num_feature":"50","num_nodes":"5","size_leaf_vector":"1"}},{"base_weights":[7.634397E-3,5.5247653E-2,-1.1021082E-1,2.5498819E-2,-9.2341915E-2],"categories":[],"categories_nodes":[],"categories_segments":[],"categories_sizes":[],"default_left":[0,0,0,0,0],"id":97,"left_children":[1,-1,3,-1,-1],"loss_changes":[1.608133E-1,0E0,2.0653456E-1,0E0,0E0],"parents":[2147483647,0,0,2,2],"right_children":[2,-1,4,-1,-1],"split_conditions":[2.00001E0,5.5247653E-2,2.00001E0,2.5498819E-2,-9.2341915E-2],"split_indices":[39,0,34,0,0],"split_type":[0,0,0,0,0],"sum_hessian":[5.754794E0,2.0785475E0,3.6762464E0,2.135958E0,1.5402884E0],"tree_param":{"num_deleted":"0","num_feature":"50","num_nodes":"5","size_leaf_vector":"1"}},{"base_weights":[7.087655E-2,2.3429164E-1,-1.2838542E-2,2.373207E-2,9.082963E-2,-4.82054E-2,5.7203747E-2,1.6628493E-1,-1.05696805E-1,9.237811E-2,-9.2607056E-4,-7.005592E-2,2.6936954E-2],"categories":[],"categories_nodes":[],"categories_segments":[],"categories_sizes":[],"default_left":[0,0,0,0,0,0,0,0,0,0,0,0,0],"id":98,"left_children":[1,3,5,-1,-1,-1,7,9,11,-1,-1,-1,-1],"loss_changes":[1.6513194E-1,1.9259438E-2,1.0015917E-1,0E0,0E0,0E0,1.3659658E-1,1.06515996E-1,1.03370026E-1,0E0,0E0,0E0,0E0],"parents":[2147483647,0,0,1,1,2,2,6,6,7,7,8,8],"right_children":[2,4,6,-1,-1,-1,8,10,12,-1,-1,-1,-1],"split_conditions":[2.00001E0,5.8E1,2.00001E0,2.373207E-2,9.082963E-2,-4.82054E-2,6.4E1,2.00001E0,2.00001E0,9.237811E-2,-9.2607056E-4,-7.005592E-2,2.6936954E-2],"split_indices":[36,0,38,0,0,0,0,43,1,0,0,0,0],"split_type":[0,0,0,0,0,0,0,0,0,0,0,0,0],"sum_hessian":[1.0850901E1,3.0664308E0,7.7844696E0,1.598646E0,1.4677848E0,2.0863879E0,5.698082E0,3.4003618E0,2.29772E0,1.4062725E0,1.9940892E0,1.2716622E0,1.0260577E0],"tree_param":{"num_deleted":"0","num_feature":"50","num_nodes":"13","size_leaf_vector":"1"}},{"base_weights":[-1.4164999E-2,9.687759E-2,-7.985751E-2,-2.3344059E-2,6.8850026E-2],"categories":[],"categories_nodes":[],"categories_segments":[],"categories_sizes":[],"default_left":[0,0,0,0,0],"id":99,"left_children":[1,3,-1,-1,-1],"loss_changes":[1.9332908E-1,1.3112299E-1,0E0,0E0,0E0],"parents":[2147483647,0,0,1,1],"right_children":[2,4,-1,-1,-1],"split_conditions":[6.6E1,5.7E1,-7.985751E-2,-2.3344059E-2,6.8850026E-2],"split_indices":[0,0,0,0,0],"split_type":[0,0,0,0,0],"sum_hessian":[4.986668E0,3.8888516E0,1.0978165E0,1.856599E0,2.0322526E0],"tree_param":{"num_deleted":"0","num_feature":"50","num_nodes":"5","size_leaf_vector":"1"}},{"base_weights":[-9.955049E-2,2.4038982E-2,-2.2445858E-1,-8.707388E-2,-1.1659588E-2],"categories":[],"categories_nodes":[],"categories_segments":[],"categories_sizes":[],"default_left":[0,0,0,0,0],"id":100,"left_children":[1,-1,3,-1,-1],"loss_changes":[1.3352466E-1,0E0,2.9010788E-2,0E0,0E0],"parents":[2147483647,0,0,2,2],"right_children":[2,-1,4,-1,-1],"split_conditions":[2.00001E0,2.4038982E-2,2.00001E0,-8.707388E-2,-1.1659588E-2],"split_indices":[31,0,16,0,0],"split_type":[0,0,0,0,0],"sum_hessian":[4.147976E0,1.848047E0,2.299929E0,1.2817136E0,1.0182153E0],"tree_param":{"num_deleted":"0","num_feature":"50","num_nodes":"5","size_leaf_vector":"1"}},{"base_weights":[-4.877037E-2,1.3236661E-1,-8.781554E-2,5.9436638E-2,1.6465915E-3],"categories":[],"categories_nodes":[],"categories_segments":[],"categories_sizes":[],"default_left":[0,0,0,0,0],"id":101,"left_children":[1,3,-1,-1,-1],"loss_changes":[2.5191653E-1,2.7754974E-2,0E0,0E0,0E0],"parents":[2147483647,0,0,1,1],"right_children":[2,4,-1,-1,-1],"split_conditions":[2.00001E0,2.00001E0,-8.781554E-2,5.9436638E-2,1.6465915E-3],"split_indices":[33,49,0,0,0],"split_type":[0,0,0,0,0],"sum_hessian":[3.8241673E0,2.4571075E0,1.3670598E0,1.24853E0,1.2085775E0],"tree_param":{"num_deleted":"0","num_feature":"50","num_nodes":"5","size_leaf_vector":"1"}},{"base_weights":[6.4810035E-3,5.224062E-2,-1.0769128E-1,2.1093432E-2,-8.789486E-2],"categories":[],"categories_nodes":[],"categories_segments":[],"categories_sizes":[],"default_left":[0,0,0,0,0],"id":102,"left_children":[1,-1,3,-1,-1],"loss_changes":[1.4169767E-1,0E0,1.6700223E-1,0E0,0E0],"parents":[2147483647,0,0,2,2],"right_children":[2,-1,4,-1,-1],"split_conditions":[2.00001E0,5.224062E-2,2.00001E0,2.1093432E-2,-8.789486E-2],"split_indices":[39,0,34,0,0],"split_type":[0,0,0,0,0],"sum_hessian":[5.4229507E0,1.9841539E0,3.4387968E0,2.070388E0,1.3684084E0],"tree_param":{"num_deleted":"0","num_feature":"50","num_nodes":"5","size_leaf_vector":"1"}},{"base_weights":[6.7044616E-2,2.1732824E-1,-9.15243E-3,2.0299302E-2,8.648803E-2,1.1721795E-1,-7.8659765E-2,-4.1072212E-2,8.949925E-2,-5.8561314E-2,2.4636952E-2,3.692589E-2,-3.6666118E-2],"categories":[],"categories_nodes":[],"categories_segments":[],"categories_sizes":[],"default_left":[0,0,0,0,0,0,0,0,0,0,0,0,0],"id":103,"left_children":[1,3,5,-1,-1,7,9,-1,-1,-1,11,-1,-1],"loss_changes":[1.3188265E-1,2.1454886E-2,8.376318E-2,0E0,0E0,1.9792944E-1,7.792615E-2,0E0,0E0,0E0,7.443255E-2,0E0,0E0],"parents":[2147483647,0,0,1,1,2,2,5,5,6,6,10,10],"right_children":[2,4,6,-1,-1,8,10,-1,-1,-1,12,-1,-1],"split_conditions":[2.00001E0,5.8E1,2.00001E0,2.0299302E-2,8.648803E-2,2.00001E0,2.00001E0,-4.1072212E-2,8.949925E-2,-5.8561314E-2,2.00001E0,3.692589E-2,-3.6666118E-2],"split_indices":[36,0,43,0,0,47,49,0,0,0,16,0,0],"split_type":[0,0,0,0,0,0,0,0,0,0,0,0,0],"sum_hessian":[1.034326E1,2.8567324E0,7.4865274E0,1.5472034E0,1.309529E0,2.4130256E0,5.0735016E0,1.1056831E0,1.3073425E0,1.9658197E0,3.107682E0,1.9573741E0,1.1503079E0],"tree_param":{"num_deleted":"0","num_feature":"50","num_nodes":"13","size_leaf_vector":"1"}},{"base_weights":[-9.341452E-3,-5.905636E-2,7.532432E-2,1.6816401E-1,-2.2309493E-2,7.484202E-2,4.964844E-3],"categories":[],"categories_nodes":[],"categories_segments":[],"categories_sizes":[],"default_left":[0,0,0,0,0,0,0],"id":104,"left_children":[1,-1,3,5,-1,-1,-1],"loss_changes":[1.072317E-1,0E0,7.8281894E-2,3.5663866E-2,0E0,0E0,0E0],"parents":[2147483647,0,0,2,2,3,3],"right_children":[2,-1,4,6,-1,-1,-1],"split_conditions":[2.00001E0,-5.905636E-2,2.00001E0,2.00001E0,-2.2309493E-2,7.484202E-2,4.964844E-3],"split_indices":[33,0,26,1,0,0,0],"split_type":[0,0,0,0,0,0,0],"sum_hessian":[4.8203654E0,1.0872674E0,3.733098E0,2.2278988E0,1.5051991E0,1.0300487E0,1.1978502E0],"tree_param":{"num_deleted":"0","num_feature":"50","num_nodes":"7","size_leaf_vector":"1"}},{"base_weights":[-9.3262225E-2,2.2141673E-2,-2.11862E-1,-8.018919E-2,-1.4390249E-2],"categories":[],"categories_nodes":[],